{"learner":{"attributes":{"scikit_learn":"{\"_estimator_type\": \"classifier\"}"},"feature_names":["Close","High","Low","Open","Volume","EMA50","EMA200","EMA_RATIO","MACD","MACD_Signal","RSI14","Stoch_K","Stoch_D","ROC10","MOM10","ATR14","BB_Upper","BB_Lower","BB_Width","RollingStd20","OBV","VWAP","Vol_Ratio20","WILLR","CCI","ADX","CMF","Cap_Encoded","Daily_Return"],"feature_types":["float","float","float","float","int","float","float","float","float","float","float","float","float","float","float","float","float","float","float","float","float","float","float","float","float","float","float","int","float"],"gradient_booster":{"model":{"cats":{"enc":[],"feature_segments":[],"sorted_idx":[]},"gbtree_model_param":{"num_parallel_tree":"1","num_trees":"300"},"iteration_indptr":[0,1,2,3,4,5,6,7,8,9,10,11,12,13,14,15,16,17,18,19,20,21,22,23,24,25,26,27,28,29,30,31,32,33,34,35,36,37,38,39,40,41,42,43,44,45,46,47,48,49,50,51,52,53,54,55,56,57,58,59,60,61,62,63,64,65,66,67,68,69,70,71,72,73,74,75,76,77,78,79,80,81,82,83,84,85,86,87,88,89,90,91,92,93,94,95,96,97,98,99,100,101,102,103,104,105,106,107,108,109,110,111,112,113,114,115,116,117,118,119,120,121,122,123,124,125,126,127,128,129,130,131,132,133,134,135,136,137,138,139,140,141,142,143,144,145,146,147,148,149,150,151,152,153,154,155,156,157,158,159,160,161,162,163,164,165,166,167,168,169,170,171,172,173,174,175,176,177,178,179,180,181,182,183,184,185,186,187,188,189,190,191,192,193,194,195,196,197,198,199,200,201,202,203,204,205,206,207,208,209,210,211,212,213,214,215,216,217,218,219,220,221,222,223,224,225,226,227,228,229,230,231,232,233,234,235,236,237,238,239,240,241,242,243,244,245,246,247,248,249,250,251,252,253,254,255,256,257,258,259,260,261,262,263,264,265,266,267,268,269,270,271,272,273,274,275,276,277,278,279,280,281,282,283,284,285,286,287,288,289,290,291,292,293,294,295,296,297,298,299,300],"tree_info":[0,0,0,0,0,0,0,0,0,0,0,0,0,0,0,0,0,0,0,0,0,0,0,0,0,0,0,0,0,0,0,0,0,0,0,0,0,0,0,0,0,0,0,0,0,0,0,0,0,0,0,0,0,0,0,0,0,0,0,0,0,0,0,0,0,0,0,0,0,0,0,0,0,0,0,0,0,0,0,0,0,0,0,0,0,0,0,0,0,0,0,0,0,0,0,0,0,0,0,0,0,0,0,0,0,0,0,0,0,0,0,0,0,0,0,0,0,0,0,0,0,0,0,0,0,0,0,0,0,0,0,0,0,0,0,0,0,0,0,0,0,0,0,0,0,0,0,0,0,0,0,0,0,0,0,0,0,0,0,0,0,0,0,0,0,0,0,0,0,0,0,0,0,0,0,0,0,0,0,0,0,0,0,0,0,0,0,0,0,0,0,0,0,0,0,0,0,0,0,0,0,0,0,0,0,0,0,0,0,0,0,0,0,0,0,0,0,0,0,0,0,0,0,0,0,0,0,0,0,0,0,0,0,0,0,0,0,0,0,0,0,0,0,0,0,0,0,0,0,0,0,0,0,0,0,0,0,0,0,0,0,0,0,0,0,0,0,0,0,0,0,0,0,0,0,0,0,0,0,0,0,0,0,0,0,0,0,0,0,0,0,0,0,0,0,0,0,0,0,0],"trees":[{"base_weights":[5.9119444E-3,-8.404826E-2,6.933676E-2,-1.186017E-1,1.8371442E-1,-5.361093E-2,1.147987E-1,-2.3075362E-1,-3.12982E-2,2.0729014E-1,-1.2235925E-1,3.6898938E-1,-8.755745E-2,1.9812332E-1,5.234103E-2,-4.099723E-1,-1.5504685E-1,-1.8960023E-1,1.4735597E-2,8.7070924E-1,1.6869701E-1,5.254319E-2,6.857948E-1,-1.5386274E-1,5.4841917E-2,1.8481163E-3,2.5751364E-1,4.1321743E-2,7.610109E-1,-9.2165685E-1,-3.4316862E-1,-1.9223286E-1,1.4227131E-1,2.9017016E-1,-2.635114E-1,3.667465E-1,-1.9278187E-2,-2.6035774E-1,1.1810766E0,3.1201777E-1,1.810844E-2,-5.070516E-2,1.3431053E-1,8.744949E-1,2.6795458E-2,5.2608177E-2,-2.1761602E-1,-3.882558E-2,2.832691E-1,-7.5036824E-1,3.952659E-2,2.0674966E-1,4.9433938E-1,5.5760753E-1,3.1869303E-2,3.8093258E-2,1.0764861E0,-1.092492E-1,3.8342327E-2,-4.1378137E-2,-1.0647305E-3,-5.1452477E-2,-1.50483195E-2,1.19376E-1,2.9985236E-3,-9.1613516E-2,3.8273383E-2,-3.3323627E-2,3.1155152E-2,7.328628E-2,5.4326025E-3,-9.760524E-3,7.774703E-3,5.744431E-2,-1.0737157E-1,1.417617E-1,1.2203765E-2,6.89395E-2,2.21206E-2,1.0283361E-2,-5.7512492E-2,1.2124445E-1,-1.7249813E-2,1.6223802E-1,6.466297E-2,1.2545714E-1,-4.1262392E-2,-1.0393555E-2,3.8595837E-2,-3.957573E-2,-7.3031145E-3,6.424679E-2,-7.2061955E-3,-5.3343575E-2,3.5679854E-2,-9.383844E-2,4.0883966E-2,3.8411632E-2,-4.555626E-3,-6.837999E-3,2.5341952E-2,6.383004E-2,1.629719E-2,2.2005618E-2,1.20119885E-1,-1.08269095E-1,3.6932423E-3,7.757305E-2,-4.4153906E-2,1.22387424E-1,-1.05685145E-2],"categories":[],"categories_nodes":[],"categories_segments":[],"categories_sizes":[],"default_left":[0,0,0,0,0,0,0,0,0,0,0,0,0,0,0,0,0,0,0,0,0,0,0,0,0,0,0,0,0,0,0,0,0,0,0,0,0,0,0,0,0,0,0,0,0,0,0,0,0,0,0,0,0,0,0,0,0,0,0,0,0,0,0,0,0,0,0,0,0,0,0,0,0,0,0,0,0,0,0,0,0,0,0,0,0,0,0,0,0,0,0,0,0,0,0,0,0,0,0,0,0,0,0,0,0,0,0,0,0,0,0],"id":0,"left_children":[1,3,5,7,9,11,13,15,17,19,-1,21,23,25,27,29,31,33,35,37,39,41,43,45,47,49,51,53,55,57,59,61,63,65,67,69,71,73,75,77,79,81,-1,83,85,87,89,91,93,95,97,99,101,103,105,107,109,-1,-1,-1,-1,-1,-1,-1,-1,-1,-1,-1,-1,-1,-1,-1,-1,-1,-1,-1,-1,-1,-1,-1,-1,-1,-1,-1,-1,-1,-1,-1,-1,-1,-1,-1,-1,-1,-1,-1,-1,-1,-1,-1,-1,-1,-1,-1,-1,-1,-1,-1,-1,-1,-1],"loss_changes":[3.9989246E1,2.683542E1,2.2981606E1,2.5131561E1,1.1256663E1,1.5960577E1,1.5608665E1,1.518219E1,1.05315695E1,8.226056E0,0E0,8.259677E0,9.719923E0,1.4983814E1,1.3374739E1,1.10695E1,8.778906E0,1.162127E1,1.3420116E1,6.534317E0,6.691102E0,5.728601E0,5.108368E0,9.252665E0,7.0184608E0,8.521405E0,1.1761757E1,8.237137E0,5.9406376E0,8.862534E0,6.95084E0,9.395174E0,1.0421513E1,5.2565613E0,1.1436319E1,1.1256439E1,7.778242E0,3.7664056E0,3.358923E0,5.2936687E0,7.7174582E0,6.4086375E0,0E0,4.412777E0,6.0303392E0,8.725497E0,1.37923565E1,5.3256116E0,5.9170375E0,3.5094357E0,8.410599E0,1.04739685E1,8.171322E0,6.3294725E0,9.419875E0,3.5284593E0,3.3044872E0,0E0,0E0,0E0,0E0,0E0,0E0,0E0,0E0,0E0,0E0,0E0,0E0,0E0,0E0,0E0,0E0,0E0,0E0,0E0,0E0,0E0,0E0,0E0,0E0,0E0,0E0,0E0,0E0,0E0,0E0,0E0,0E0,0E0,0E0,0E0,0E0,0E0,0E0,0E0,0E0,0E0,0E0,0E0,0E0,0E0,0E0,0E0,0E0,0E0,0E0,0E0,0E0,0E0,0E0],"parents":[2147483647,0,0,1,1,2,2,3,3,4,4,5,5,6,6,7,7,8,8,9,9,11,11,12,12,13,13,14,14,15,15,16,16,17,17,18,18,19,19,20,20,21,21,22,22,23,23,24,24,25,25,26,26,27,27,28,28,29,29,30,30,31,31,32,32,33,33,34,34,35,35,36,36,37,37,38,38,39,39,40,40,41,41,43,43,44,44,45,45,46,46,47,47,48,48,49,49,50,50,51,51,52,52,53,53,54,54,55,55,56,56],"right_children":[2,4,6,8,10,12,14,16,18,20,-1,22,24,26,28,30,32,34,36,38,40,42,44,46,48,50,52,54,56,58,60,62,64,66,68,70,72,74,76,78,80,82,-1,84,86,88,90,92,94,96,98,100,102,104,106,108,110,-1,-1,-1,-1,-1,-1,-1,-1,-1,-1,-1,-1,-1,-1,-1,-1,-1,-1,-1,-1,-1,-1,-1,-1,-1,-1,-1,-1,-1,-1,-1,-1,-1,-1,-1,-1,-1,-1,-1,-1,-1,-1,-1,-1,-1,-1,-1,-1,-1,-1,-1,-1,-1,-1],"split_conditions":[1.1248198E-1,2.667245E1,5.54176E-1,7.4316883E-1,9.291051E1,3.870468E8,4.8465164E1,2.979385E1,3.0498478E9,2.3279634E1,-1.2235925E-1,4.04313E5,1.1006025E0,4.10938E5,9.830066E1,-1.1522222E1,1.5076948E1,1.3623218E8,3.7021143E9,3.3648598E1,3.879296E9,3.1206836E2,7.146584E1,1.3671283E-1,4.7501832E-1,4.284147E2,1.1295E0,-3.813086E1,1.7549399E-1,4.9189586E9,4.3894544E0,9.6371E4,1.7952827E1,7.8697295E0,1.0062234E3,7.347856E-2,4.7205294E9,3.0349722E1,5.201412E0,5.578974E-1,9.086981E1,5.903023E1,1.3431053E-1,1.2835121E-1,6.7909094E2,6.71895E5,1.8756554E-1,1.1354906E1,1.1132265E1,3.608139E1,1.0234674E1,-1.1522222E1,-1.1144104E1,5.2685127E1,-3.05E1,6.490253E1,5.1073006E1,-1.092492E-1,3.8342327E-2,-4.1378137E-2,-1.0647305E-3,-5.1452477E-2,-1.50483195E-2,1.19376E-1,2.9985236E-3,-9.1613516E-2,3.8273383E-2,-3.3323627E-2,3.1155152E-2,7.328628E-2,5.4326025E-3,-9.760524E-3,7.774703E-3,5.744431E-2,-1.0737157E-1,1.417617E-1,1.2203765E-2,6.89395E-2,2.21206E-2,1.0283361E-2,-5.7512492E-2,1.2124445E-1,-1.7249813E-2,1.6223802E-1,6.466297E-2,1.2545714E-1,-4.1262392E-2,-1.0393555E-2,3.8595837E-2,-3.957573E-2,-7.3031145E-3,6.424679E-2,-7.2061955E-3,-5.3343575E-2,3.5679854E-2,-9.383844E-2,4.0883966E-2,3.8411632E-2,-4.555626E-3,-6.837999E-3,2.5341952E-2,6.383004E-2,1.629719E-2,2.2005618E-2,1.20119885E-1,-1.08269095E-1,3.6932423E-3,7.757305E-2,-4.4153906E-2,1.22387424E-1,-1.05685145E-2],"split_indices":[18,8,22,22,12,20,11,11,20,19,0,4,7,4,11,26,9,20,20,9,20,14,10,18,22,21,7,14,18,20,8,4,15,11,25,18,20,9,26,22,11,19,0,18,21,4,18,19,11,12,12,26,14,10,14,10,26,0,0,0,0,0,0,0,0,0,0,0,0,0,0,0,0,0,0,0,0,0,0,0,0,0,0,0,0,0,0,0,0,0,0,0,0,0,0,0,0,0,0,0,0,0,0,0,0,0,0,0,0,0,0],"split_type":[0,0,0,0,0,0,0,0,0,0,0,0,0,0,0,0,0,0,0,0,0,0,0,0,0,0,0,0,0,0,0,0,0,0,0,0,0,0,0,0,0,0,0,0,0,0,0,0,0,0,0,0,0,0,0,0,0,0,0,0,0,0,0,0,0,0,0,0,0,0,0,0,0,0,0,0,0,0,0,0,0,0,0,0,0,0,0,0,0,0,0,0,0,0,0,0,0,0,0,0,0,0,0,0,0,0,0,0,0,0,0],"sum_hessian":[7.0066157E3,2.897106E3,4.10951E3,2.5664727E3,3.3063345E2,1.109308E3,3.0002017E3,1.1226498E3,1.4438228E3,3.260245E2,4.6089773E0,8.17487E1,1.0275593E3,1.2844492E3,1.7157524E3,3.3208893E2,7.9056085E2,3.2456903E2,1.1192537E3,1.6737865E1,3.0928662E2,4.1480793E1,4.0267906E1,7.010497E2,3.2650964E2,2.9861322E2,9.8583594E2,1.6905243E3,2.5228086E1,3.687182E1,2.9521713E2,7.029903E2,8.7570564E1,4.293626E1,2.8163275E2,9.7758835E1,1.0214949E3,3.6386662E0,1.3099198E1,1.579181E2,1.5136852E2,3.9297596E1,2.1831996E0,3.1049952E1,9.217955E0,1.6543802E2,5.356117E2,2.321469E2,9.436275E1,1.3341776E1,2.8527142E2,8.1336316E2,1.7247278E2,2.9351908E1,1.6611724E3,8.005066E0,1.722302E1,3.2747997E1,4.1238217E0,2.4330548E2,5.1911636E1,7.932292E1,6.2366736E2,7.5199103E0,8.005066E1,2.4257774E0,4.0510483E1,2.5155312E2,3.0079641E1,4.4391727E1,5.3367104E1,5.652062E2,4.5628873E2,1.940622E0,1.6980442E0,1.0430843E1,2.6683552E0,2.9351908E1,1.2856621E2,1.3317519E2,1.819333E1,2.6683552E0,3.662924E1,5.821866E0,2.5228086E1,1.940622E0,7.2773323E0,1.1304123E2,5.2396793E1,2.3918166E2,2.9643E2,9.945687E0,2.2220122E2,7.2773323E0,8.708541E1,1.1643732E1,1.6980442E0,5.579288E1,2.2947855E2,1.17892784E2,6.954704E2,1.1959083E2,5.288195E1,2.0133953E1,9.217955E0,6.549599E0,1.6546228E3,2.910933E0,5.094133E0,1.5282398E1,1.940622E0],"tree_param":{"num_deleted":"0","num_feature":"29","num_nodes":"111","size_leaf_vector":"1"}},{"base_weights":[-5.6628194E-3,-3.5342615E-2,1.3658202E-1,3.1786093E-1,-5.1257696E-2,1.9806965E-1,7.075908E-3,4.0524185E-1,-7.4164E-2,-9.910542E-2,2.8056698E-2,2.8759903E-1,8.278624E-2,-3.301671E-1,8.576775E-2,1.0690997E0,2.7084455E-1,-2.2345328E-1,1.7319916E-1,-1.3079393E-1,5.1554054E-2,5.286074E-1,1.26499655E-2,2.5650865E-1,1.0432814E0,1.7545998E-1,-2.906777E-1,-5.3631473E-2,-5.6671464E-1,1.5186664E-1,6.7728594E-2,2.1225137E-1,1.2463125E0,5.558321E-1,8.4305234E-2,-3.785701E-1,9.04602E-1,-2.1323568E-1,-5.3699087E-2,5.6970066E-1,4.6432223E-3,2.368282E-1,1.2261691E0,4.9159753E-1,3.6458927E-3,2.1648014E-1,6.596947E-1,1.435649E-1,1.2248265E0,9.4160765E-1,1.4759795E-1,-5.757903E-1,2.16704E-1,-9.8702407E-1,1.0081738E-1,-3.2462034E-1,-1.1283259E0,3.6269512E-2,6.832495E-1,1.0878166E-1,-7.725292E-2,2.0256839E-3,1.3243715E-1,6.5782554E-2,-8.463928E-3,8.615989E-2,-4.4752727E-3,-5.3249966E-2,4.3239802E-2,1.3951819E-1,-4.813467E-2,-2.6914308E-2,-9.165778E-3,-3.160324E-3,-4.9420465E-2,-1.3275196E-2,8.461801E-2,-1.2331597E-3,1.0382038E-1,-2.0949075E-3,7.445114E-2,5.088074E-2,1.5031525E-1,9.483719E-2,-1.4944702E-2,-1.2390641E-3,2.33646E-2,-7.862641E-2,2.4228046E-2,7.775172E-2,-7.1174376E-2,-6.035784E-2,7.693767E-2,1.848013E-1,7.098218E-2,-4.6122476E-2,1.3376324E-1,-1.5611802E-2,2.4408666E-2,-8.558629E-2,-1.9024692E-2,7.970393E-2,-1.3453898E-2,-1.21333204E-1,-3.3369903E-2,1.0952351E-1,-7.983924E-3,-7.916006E-2,-1.5941743E-3,-2.2825946E-3,-1.2540396E-1,8.450038E-3,-5.8476966E-2,1.14991E-1,-3.3101644E-2],"categories":[],"categories_nodes":[],"categories_segments":[],"categories_sizes":[],"default_left":[0,0,0,0,0,0,0,0,0,0,0,0,0,0,0,0,0,0,0,0,0,0,0,0,0,0,0,0,0,0,0,0,0,0,0,0,0,0,0,0,0,0,0,0,0,0,0,0,0,0,0,0,0,0,0,0,0,0,0,0,0,0,0,0,0,0,0,0,0,0,0,0,0,0,0,0,0,0,0,0,0,0,0,0,0,0,0,0,0,0,0,0,0,0,0,0,0,0,0,0,0,0,0,0,0,0,0,0,0,0,0,0,0,0,0],"id":1,"left_children":[1,3,5,7,9,11,13,15,17,19,21,23,25,27,29,31,33,35,-1,37,39,41,43,45,47,49,51,53,55,-1,57,59,61,63,65,67,69,71,73,75,77,79,81,83,85,87,89,91,93,95,97,99,101,103,105,107,109,111,113,-1,-1,-1,-1,-1,-1,-1,-1,-1,-1,-1,-1,-1,-1,-1,-1,-1,-1,-1,-1,-1,-1,-1,-1,-1,-1,-1,-1,-1,-1,-1,-1,-1,-1,-1,-1,-1,-1,-1,-1,-1,-1,-1,-1,-1,-1,-1,-1,-1,-1,-1,-1,-1,-1,-1,-1],"loss_changes":[2.9763245E1,3.2803455E1,9.689999E0,8.64957E0,2.1186842E1,8.493305E0,1.0453842E1,1.8082375E1,1.2981525E1,1.6630001E1,1.6197205E1,1.06356735E1,1.2584188E1,4.8449163E0,8.150973E0,4.948204E0,9.128059E0,8.046559E0,0E0,1.827496E1,1.4722483E1,1.247472E1,8.793295E0,7.072363E0,2.7663326E0,6.0675383E0,1.0594001E1,5.212243E0,5.081069E0,0E0,6.1018023E0,6.952343E0,2.6759644E0,4.504074E0,1.0620754E1,5.1500015E0,4.490952E0,9.423328E0,1.4468604E1,9.878466E0,9.776672E0,5.964901E0,2.8628788E0,1.1159127E1,7.3901205E0,1.0750526E1,6.9987373E0,2.40813E0,3.4560394E0,6.1817846E0,8.294413E0,4.869879E0,5.56259E0,3.532939E-1,5.717147E0,4.225353E0,1.592474E0,9.097289E0,7.6358857E0,0E0,0E0,0E0,0E0,0E0,0E0,0E0,0E0,0E0,0E0,0E0,0E0,0E0,0E0,0E0,0E0,0E0,0E0,0E0,0E0,0E0,0E0,0E0,0E0,0E0,0E0,0E0,0E0,0E0,0E0,0E0,0E0,0E0,0E0,0E0,0E0,0E0,0E0,0E0,0E0,0E0,0E0,0E0,0E0,0E0,0E0,0E0,0E0,0E0,0E0,0E0,0E0,0E0,0E0,0E0,0E0],"parents":[2147483647,0,0,1,1,2,2,3,3,4,4,5,5,6,6,7,7,8,8,9,9,10,10,11,11,12,12,13,13,14,14,15,15,16,16,17,17,19,19,20,20,21,21,22,22,23,23,24,24,25,25,26,26,27,27,28,28,30,30,31,31,32,32,33,33,34,34,35,35,36,36,37,37,38,38,39,39,40,40,41,41,42,42,43,43,44,44,45,45,46,46,47,47,48,48,49,49,50,50,51,51,52,52,53,53,54,54,55,55,56,56,57,57,58,58],"right_children":[2,4,6,8,10,12,14,16,18,20,22,24,26,28,30,32,34,36,-1,38,40,42,44,46,48,50,52,54,56,-1,58,60,62,64,66,68,70,72,74,76,78,80,82,84,86,88,90,92,94,96,98,100,102,104,106,108,110,112,114,-1,-1,-1,-1,-1,-1,-1,-1,-1,-1,-1,-1,-1,-1,-1,-1,-1,-1,-1,-1,-1,-1,-1,-1,-1,-1,-1,-1,-1,-1,-1,-1,-1,-1,-1,-1,-1,-1,-1,-1,-1,-1,-1,-1,-1,-1,-1,-1,-1,-1,-1,-1,-1,-1,-1,-1],"split_conditions":[1.6876829E0,-3.5804067E0,5.0689692E0,2.4209106E0,1.0541087E0,4.447013E9,7.695977E2,-5.867363E0,4.0542892E-1,1.4101387E1,-1.3997116E2,9.090065E1,8.105636E1,5.1301373E2,1.790711E0,9.469487E0,-7.147486E1,4.197137E1,1.7319916E-1,1.07870236E-1,4.8703167E1,1.6810799E1,-7.684052E1,2.7783704E-1,-5.8685434E-1,9.870024E0,1.8214056E-1,2.9468222E2,1.0291641E1,1.5186664E-1,6.1306826E3,-1.6691127E2,1.8534822E2,1.9256839E0,9.57036E-2,6.6114283E0,7.935433E1,9.637939E-1,5.2016395E-1,1.769305E1,1.5503918E2,-8.888757E1,3.6726144E9,4.181397E3,9.174295E1,1.0234674E1,8.545037E1,2.6864762E0,7.685166E-1,3.1406618E1,-3.3701236E0,2.6864762E0,8.2058007E-1,2.939665E-1,2.1658719E0,5.268623E2,1.1192501E-1,4.647294E3,6.937267E1,1.0878166E-1,-7.725292E-2,2.0256839E-3,1.3243715E-1,6.5782554E-2,-8.463928E-3,8.615989E-2,-4.4752727E-3,-5.3249966E-2,4.3239802E-2,1.3951819E-1,-4.813467E-2,-2.6914308E-2,-9.165778E-3,-3.160324E-3,-4.9420465E-2,-1.3275196E-2,8.461801E-2,-1.2331597E-3,1.0382038E-1,-2.0949075E-3,7.445114E-2,5.088074E-2,1.5031525E-1,9.483719E-2,-1.4944702E-2,-1.2390641E-3,2.33646E-2,-7.862641E-2,2.4228046E-2,7.775172E-2,-7.1174376E-2,-6.035784E-2,7.693767E-2,1.848013E-1,7.098218E-2,-4.6122476E-2,1.3376324E-1,-1.5611802E-2,2.4408666E-2,-8.558629E-2,-1.9024692E-2,7.970393E-2,-1.3453898E-2,-1.21333204E-1,-3.3369903E-2,1.0952351E-1,-7.983924E-3,-7.916006E-2,-1.5941743E-3,-2.2825946E-3,-1.2540396E-1,8.450038E-3,-5.8476966E-2,1.14991E-1,-3.3101644E-2],"split_indices":[28,28,26,22,7,20,16,28,18,8,24,12,12,5,12,12,24,11,0,18,10,11,8,18,8,12,18,5,26,0,17,24,17,22,18,22,12,22,18,11,8,14,20,21,11,12,12,28,26,17,26,28,26,18,28,17,18,16,10,0,0,0,0,0,0,0,0,0,0,0,0,0,0,0,0,0,0,0,0,0,0,0,0,0,0,0,0,0,0,0,0,0,0,0,0,0,0,0,0,0,0,0,0,0,0,0,0,0,0,0,0,0,0,0,0],"split_type":[0,0,0,0,0,0,0,0,0,0,0,0,0,0,0,0,0,0,0,0,0,0,0,0,0,0,0,0,0,0,0,0,0,0,0,0,0,0,0,0,0,0,0,0,0,0,0,0,0,0,0,0,0,0,0,0,0,0,0,0,0,0,0,0,0,0,0,0,0,0,0,0,0,0,0,0,0,0,0,0,0,0,0,0,0,0,0,0,0,0,0,0,0,0,0,0,0,0,0,0,0,0,0,0,0,0,0,0,0,0,0,0,0,0,0],"sum_hessian":[7.047755E3,5.8317046E3,1.2160504E3,2.5062428E2,5.58108E3,8.2420184E2,3.9184857E2,2.0491563E2,4.5708652E1,3.4809126E3,2.1001677E3,4.6307892E2,3.6112296E2,7.353029E1,3.1831827E2,3.332945E1,1.715862E2,4.3028385E1,2.6802642E0,2.876107E3,6.048056E2,6.171733E1,2.0384503E3,4.4606622E2,1.7012678E1,2.8975217E2,7.137079E1,3.4465343E1,3.906495E1,2.9233284E0,3.1539496E2,6.0884867E0,2.7240961E1,6.709752E1,1.0448868E2,3.841097E1,4.617418E0,1.3890034E3,1.4871035E3,4.9285507E1,5.555201E2,4.4459938E1,1.7257395E1,3.662609E1,2.0018242E3,4.0717828E2,3.888794E1,3.1571245E0,1.3855555E1,9.016688E0,2.8073547E2,4.5607677E1,2.576311E1,4.127952E0,3.033739E1,2.8400387E1,1.0664563E1,3.0106647E2,1.4328487E1,3.1675763E0,2.9209106E0,1.7059231E0,2.5535038E1,5.7856857E1,9.240658E0,1.4070206E1,9.0418465E1,3.2571888E1,5.839081E0,3.4053686E0,1.2120495E0,9.506395E2,4.3836386E2,1.4170935E3,7.0009964E1,1.4066511E1,3.5218998E1,5.475159E2,8.004131E0,3.0123432E1,1.4336504E1,5.597455E0,1.165994E1,2.110697E1,1.5519122E1,1.8722308E3,1.2959335E2,9.474421E0,3.9770386E2,3.6210133E1,2.6778069E0,1.4552546E0,1.70187E0,5.098149E0,8.757405E0,1.9488102E0,7.067878E0,6.753588E1,2.131996E2,2.5710648E1,1.989703E1,9.235204E0,1.6527906E1,2.4292943E0,1.6986578E0,3.885773E0,2.6451618E1,1.0679526E1,1.772086E1,1.209554E0,9.4550085E0,2.801718E2,2.0894642E1,9.721788E0,4.6067E0],"tree_param":{"num_deleted":"0","num_feature":"29","num_nodes":"115","size_leaf_vector":"1"}},{"base_weights":[6.9254427E-3,3.7269586E-1,-6.2432247E-3,5.506001E-1,-9.0012565E-2,-3.7469253E-2,1.3487366E-1,-2.934275E-1,6.312059E-1,2.6733586E-1,-4.174425E-1,2.967355E-1,-5.0077174E-2,3.1321952E-1,9.3471386E-2,9.970314E-2,-5.701132E-1,7.489942E-1,1.90414E-1,-8.6474165E-2,3.7443334E-1,-4.4679088E-3,-8.9454556E-1,5.543652E-1,-4.233052E-2,-9.476336E-2,3.503483E-2,5.5503966E-3,5.3140557E-1,7.769072E-2,7.443014E-1,-7.998843E-1,5.4971874E-2,6.4661324E-1,1.2410772E0,4.8806605E-1,-5.3704506E-1,1.3113599E-1,9.990219E-1,3.3239964E-1,-1.0109267E0,3.812402E-2,-1.0643042E0,8.837252E-1,3.1731358E-1,8.247548E-1,-1.4279824E-1,-2.294132E-1,-5.9308954E-2,-4.5294496E-3,1.8299164E-1,1.8930192E-1,-5.142366E-1,2.113815E-1,6.9075E-1,2.0193891E-1,2.6054103E-3,1.6686825E-1,1.1216171E0,1.3182818E-2,-1.0827859E-1,-3.4379553E-2,7.020567E-2,1.5563726E-1,4.8639305E-2,2.7361775E-2,1.5183076E-1,3.895762E-2,-7.5519435E-2,3.7363585E-2,-5.5120893E-2,1.5116353E-1,4.1630827E-2,7.2675936E-2,-7.229086E-2,-3.1662148E-3,-1.2896317E-1,-1.4105848E-2,-1.2510288E-1,5.7334613E-2,1.2371081E-1,3.922742E-3,7.1409516E-2,1.3560417E-1,-7.838108E-2,9.9731795E-2,-2.107613E-2,-2.598044E-2,2.8293047E-2,-1.6574478E-2,-2.2230863E-3,-3.2935569E-3,1.8329574E-2,1.0171745E-1,1.5443268E-2,-1.0129597E-1,2.5439287E-2,-1.0332741E-1,-1.7089458E-2,4.5022808E-2,-3.5008263E-2,3.5022553E-2,8.536382E-2,1.3898E-2,5.1086288E-2,8.7482175E-3,-2.0287462E-2,7.3549874E-2,-5.7475418E-2,1.303498E-1,-2.5363062E-2],"categories":[],"categories_nodes":[],"categories_segments":[],"categories_sizes":[],"default_left":[0,0,0,0,0,0,0,0,0,0,0,0,0,0,0,0,0,0,0,0,0,0,0,0,0,0,0,0,0,0,0,0,0,0,0,0,0,0,0,0,0,0,0,0,0,0,0,0,0,0,0,0,0,0,0,0,0,0,0,0,0,0,0,0,0,0,0,0,0,0,0,0,0,0,0,0,0,0,0,0,0,0,0,0,0,0,0,0,0,0,0,0,0,0,0,0,0,0,0,0,0,0,0,0,0,0,0,0,0,0,0],"id":2,"left_children":[1,3,5,7,9,11,13,15,17,19,21,23,25,27,29,-1,31,33,35,-1,37,39,41,43,45,47,49,51,53,55,57,59,-1,61,63,65,67,69,71,73,75,-1,77,79,81,83,85,87,89,91,93,95,97,99,101,103,105,107,109,-1,-1,-1,-1,-1,-1,-1,-1,-1,-1,-1,-1,-1,-1,-1,-1,-1,-1,-1,-1,-1,-1,-1,-1,-1,-1,-1,-1,-1,-1,-1,-1,-1,-1,-1,-1,-1,-1,-1,-1,-1,-1,-1,-1,-1,-1,-1,-1,-1,-1,-1,-1],"loss_changes":[3.3780987E1,2.0112179E1,2.9837582E1,1.2171238E1,8.131612E0,2.3376173E1,9.029755E0,6.2959385E0,8.22364E0,4.3713393E0,7.1205406E0,1.7642454E1,2.0326538E1,1.5485376E1,1.0183272E1,0E0,4.002158E0,5.586525E0,7.909942E0,0E0,4.609632E0,7.2482185E0,4.0381794E0,8.673531E0,7.7850447E0,1.6715008E1,1.0774001E1,9.337333E0,6.737297E0,9.092154E0,4.9304075E0,3.2781615E0,0E0,6.1204224E0,4.1811867E0,5.2378874E0,2.4635205E0,4.111366E0,1.9378738E0,7.1954894E0,1.42205E0,0E0,2.4208279E0,4.4936714E0,7.502319E0,8.99939E0,6.387938E0,1.1440384E1,1.0948253E1,7.758642E0,9.09392E0,5.9082384E0,4.374181E0,6.367936E0,4.674946E0,7.069273E0,1.0630757E1,4.8327317E0,3.8402367E0,0E0,0E0,0E0,0E0,0E0,0E0,0E0,0E0,0E0,0E0,0E0,0E0,0E0,0E0,0E0,0E0,0E0,0E0,0E0,0E0,0E0,0E0,0E0,0E0,0E0,0E0,0E0,0E0,0E0,0E0,0E0,0E0,0E0,0E0,0E0,0E0,0E0,0E0,0E0,0E0,0E0,0E0,0E0,0E0,0E0,0E0,0E0,0E0,0E0,0E0,0E0,0E0],"parents":[2147483647,0,0,1,1,2,2,3,3,4,4,5,5,6,6,7,7,8,8,9,9,10,10,11,11,12,12,13,13,14,14,16,16,17,17,18,18,20,20,21,21,22,22,23,23,24,24,25,25,26,26,27,27,28,28,29,29,30,30,31,31,33,33,34,34,35,35,36,36,37,37,38,38,39,39,40,40,42,42,43,43,44,44,45,45,46,46,47,47,48,48,49,49,50,50,51,51,52,52,53,53,54,54,55,55,56,56,57,57,58,58],"right_children":[2,4,6,8,10,12,14,16,18,20,22,24,26,28,30,-1,32,34,36,-1,38,40,42,44,46,48,50,52,54,56,58,60,-1,62,64,66,68,70,72,74,76,-1,78,80,82,84,86,88,90,92,94,96,98,100,102,104,106,108,110,-1,-1,-1,-1,-1,-1,-1,-1,-1,-1,-1,-1,-1,-1,-1,-1,-1,-1,-1,-1,-1,-1,-1,-1,-1,-1,-1,-1,-1,-1,-1,-1,-1,-1,-1,-1,-1,-1,-1,-1,-1,-1,-1,-1,-1,-1,-1,-1,-1,-1,-1,-1],"split_conditions":[-1.1462881E1,1.6177388E2,1.6295286E0,4.4060686E-1,-1.3997116E2,-3.5804067E0,4.5519886E1,-2.4685004E0,1.8238227E0,5.538462E2,8.948798E-1,1.0329773E3,9.572554E0,3.5516308E1,9.830066E1,9.970314E-2,1.0127313E0,7.092764E1,2.9287704E2,-8.6474165E-2,2.201565E6,4.0238545E3,-5.3087006E2,-4.8944316E0,1.93583E5,2.55257E5,1.37026E6,1.8797728E3,-4.50781E0,9.7759E5,1.0429625E1,-1.3601762E1,5.4971874E-2,-2.715717E1,2.0255118E3,4.0542892E-1,5.6194363E0,1.151842E6,3.61495E0,-8.29041E1,1.48478E5,3.812402E-2,-1.23053986E2,-1.271272E0,2.2309034E1,4.720604E1,-8.759603E1,8.603833E1,3.0905306E9,3.7815452E3,2.2707387E8,1.0848869E-1,2.2370854E3,-5.608579E0,2.1323223E1,3.7477148E0,5.32765E0,1.3936092E0,4.0542892E-1,1.3182818E-2,-1.0827859E-1,-3.4379553E-2,7.020567E-2,1.5563726E-1,4.8639305E-2,2.7361775E-2,1.5183076E-1,3.895762E-2,-7.5519435E-2,3.7363585E-2,-5.5120893E-2,1.5116353E-1,4.1630827E-2,7.2675936E-2,-7.229086E-2,-3.1662148E-3,-1.2896317E-1,-1.4105848E-2,-1.2510288E-1,5.7334613E-2,1.2371081E-1,3.922742E-3,7.1409516E-2,1.3560417E-1,-7.838108E-2,9.9731795E-2,-2.107613E-2,-2.598044E-2,2.8293047E-2,-1.6574478E-2,-2.2230863E-3,-3.2935569E-3,1.8329574E-2,1.0171745E-1,1.5443268E-2,-1.0129597E-1,2.5439287E-2,-1.0332741E-1,-1.7089458E-2,4.5022808E-2,-3.5008263E-2,3.5022553E-2,8.536382E-2,1.3898E-2,5.1086288E-2,8.7482175E-3,-2.0287462E-2,7.3549874E-2,-5.7475418E-2,1.303498E-1,-2.5363062E-2],"split_indices":[13,19,28,22,24,28,11,28,22,21,22,1,9,10,11,0,28,15,25,0,4,2,25,13,4,4,4,3,13,4,13,26,0,26,17,18,12,4,22,24,4,0,24,26,15,11,9,11,20,6,20,18,6,13,12,28,26,22,18,0,0,0,0,0,0,0,0,0,0,0,0,0,0,0,0,0,0,0,0,0,0,0,0,0,0,0,0,0,0,0,0,0,0,0,0,0,0,0,0,0,0,0,0,0,0,0,0,0,0,0,0],"split_type":[0,0,0,0,0,0,0,0,0,0,0,0,0,0,0,0,0,0,0,0,0,0,0,0,0,0,0,0,0,0,0,0,0,0,0,0,0,0,0,0,0,0,0,0,0,0,0,0,0,0,0,0,0,0,0,0,0,0,0,0,0,0,0,0,0,0,0,0,0,0,0,0,0,0,0,0,0,0,0,0,0,0,0,0,0,0,0,0,0,0,0,0,0,0,0,0,0,0,0,0,0,0,0,0,0,0,0,0,0,0,0],"sum_hessian":[7.0118096E3,2.4272148E2,6.769088E3,1.751782E2,6.754328E1,5.543229E3,1.2258588E3,1.504115E1,1.6013705E2,3.238389E1,3.5159393E1,2.0069759E2,5.3425312E3,2.2972447E2,9.9613434E2,2.195921E0,1.2845229E1,1.25817055E2,3.432E1,2.1874142E0,3.0196474E1,1.9387325E1,1.5772068E1,1.1368345E2,8.701414E1,3.5031606E3,1.8393708E3,9.574198E1,1.339825E2,9.7364575E2,2.2488602E1,1.0895386E1,1.9498436E0,1.0606385E2,1.9753212E1,2.4588346E1,9.731652E0,2.260216E1,7.5943136E0,1.5027327E1,4.359999E0,1.7059072E0,1.406616E1,4.6436497E1,6.724695E1,8.286704E0,7.872743E1,7.290149E2,2.7741458E3,1.4520547E3,3.8731622E2,7.120566E1,2.4536324E1,4.53098E1,8.86727E1,3.661183E2,6.0752747E2,9.457447E0,1.3031155E1,2.662076E0,8.23331E0,5.347023E0,1.0071683E2,1.3183193E1,6.5700183E0,2.1399544E1,3.1888027E0,1.7047311E0,8.026921E0,1.7009533E1,5.5926266E0,3.1920955E0,4.4022183E0,1.1166013E1,3.8613138E0,1.2126846E0,3.1473145E0,2.6615849E0,1.1404575E1,2.611869E1,2.0317808E1,4.018322E1,2.7063732E1,6.347274E0,1.93943E0,3.6596947E0,7.506773E1,6.8865796E2,4.035692E1,7.158287E2,2.0583171E3,1.2620157E3,1.9003883E2,1.1675253E1,3.75641E2,2.9091935E0,6.829646E1,8.968696E0,1.5567628E1,3.1926428E1,1.338337E1,2.9710909E1,5.8961792E1,3.0533975E2,6.0778553E1,4.3034213E2,1.7718533E2,5.357728E0,4.099719E0,1.1555125E1,1.4760293E0],"tree_param":{"num_deleted":"0","num_feature":"29","num_nodes":"111","size_leaf_vector":"1"}},{"base_weights":[-4.092983E-3,2.0375097E-1,-2.8956281E-2,6.828992E-1,1.685326E-1,-5.8310695E-2,9.9176615E-2,3.8408846E-2,9.078086E-1,-1.7512923E-1,2.0628935E-1,-1.316733E-1,-6.5325707E-4,2.3081478E-1,2.8678818E-2,7.7500975E-1,-6.5776104E-1,1.5046401E0,6.1846274E-1,-1.1363321E-1,-1.0155635E-1,2.4523433E-1,-1.2709965E-1,-2.4392593E-1,-4.8721865E-2,-5.4450326E-2,1.4230655E-1,5.3129905E-1,1.7981721E-1,8.614711E-3,4.7275192E-1,1.0971594E0,-4.7472052E-2,-1.3518944E-1,-1.087945E-1,1.7633457E-1,1.547806E-2,1.2472491E0,2.4103352E-1,-2.5207418E-1,5.3997433E-1,1.8674584E-1,6.974387E-1,-2.9550064E-1,4.5382386E-1,-4.2211992E-1,-1.2562332E-1,-5.6454986E-2,1.1569035E0,4.5273644E-1,-6.2274072E-2,1.6831692E-1,-3.9706975E-1,-4.2270812E-1,6.116321E-1,1.5432297E-1,9.486876E-1,1.2979598E-1,-6.5814346E-2,7.4609613E-1,-2.7831012E-1,1.7682716E-2,1.3467988E-1,-6.926873E-2,7.893997E-2,1.492577E-1,1.679332E-2,-4.107769E-3,9.089666E-2,-5.2097946E-2,2.2849001E-2,9.2595436E-2,-6.823015E-2,1.2330292E-2,4.75302E-2,1.2005269E-1,2.6708683E-2,-7.88016E-2,-1.08401645E-2,1.2090578E-1,-2.118794E-2,-1.9422451E-2,-5.392888E-2,-3.3503555E-2,-5.185314E-3,4.557768E-3,-1.0701821E-2,1.697928E-1,2.8937915E-2,1.0360932E-1,-1.7708948E-2,-4.155723E-3,-2.313867E-2,-2.351495E-2,1.9295873E-2,1.442389E-3,-8.258509E-2,1.0256794E-2,-1.0342451E-1,3.2882717E-2,1.0282343E-1,2.4093946E-2,-2.547918E-2,-8.872061E-3,1.2554292E-1,-3.3507776E-2,1.8676486E-2,5.971402E-3,-1.644417E-2,-4.3724734E-2,9.117013E-2,7.1009435E-2,-6.6995464E-2],"categories":[],"categories_nodes":[],"categories_segments":[],"categories_sizes":[],"default_left":[0,0,0,0,0,0,0,0,0,0,0,0,0,0,0,0,0,0,0,0,0,0,0,0,0,0,0,0,0,0,0,0,0,0,0,0,0,0,0,0,0,0,0,0,0,0,0,0,0,0,0,0,0,0,0,0,0,0,0,0,0,0,0,0,0,0,0,0,0,0,0,0,0,0,0,0,0,0,0,0,0,0,0,0,0,0,0,0,0,0,0,0,0,0,0,0,0,0,0,0,0,0,0,0,0,0,0,0,0,0,0,0,0],"id":3,"left_children":[1,3,5,7,9,11,13,15,17,19,21,23,25,27,29,31,33,35,37,-1,39,41,43,45,47,49,51,53,55,57,59,61,-1,63,-1,-1,-1,65,67,69,71,73,75,77,79,81,83,85,87,89,91,93,95,97,99,101,103,105,107,109,111,-1,-1,-1,-1,-1,-1,-1,-1,-1,-1,-1,-1,-1,-1,-1,-1,-1,-1,-1,-1,-1,-1,-1,-1,-1,-1,-1,-1,-1,-1,-1,-1,-1,-1,-1,-1,-1,-1,-1,-1,-1,-1,-1,-1,-1,-1,-1,-1,-1,-1,-1,-1],"loss_changes":[3.6239388E1,1.2528606E1,2.3563665E1,7.353916E0,9.109808E0,2.155755E1,1.083078E1,7.80737E0,5.5873184E0,4.8181887E0,8.2178135E0,2.0871845E1,2.1962751E1,6.143532E0,6.7822084E0,3.4895158E0,1.6192255E0,3.7869225E0,6.134962E0,0E0,6.4997053E0,1.4811096E1,6.6504087E0,2.0033096E1,1.2101337E1,8.261593E0,1.1021067E1,4.7466507E0,6.706026E0,6.5904274E0,6.96337E0,1.1781592E0,0E0,2.9640522E0,0E0,0E0,0E0,2.3792496E0,3.4640265E0,7.104983E0,6.6902866E0,9.123808E0,1.360775E1,4.728975E0,7.9806213E0,1.0035477E1,8.850991E0,6.627588E0,3.392209E0,1.1809008E1,7.152389E0,7.4581203E0,6.402308E0,1.7570581E0,6.073803E0,1.209396E1,3.6197739E0,7.4250183E0,5.6150346E0,5.1798477E0,4.1566615E0,0E0,0E0,0E0,0E0,0E0,0E0,0E0,0E0,0E0,0E0,0E0,0E0,0E0,0E0,0E0,0E0,0E0,0E0,0E0,0E0,0E0,0E0,0E0,0E0,0E0,0E0,0E0,0E0,0E0,0E0,0E0,0E0,0E0,0E0,0E0,0E0,0E0,0E0,0E0,0E0,0E0,0E0,0E0,0E0,0E0,0E0,0E0,0E0,0E0,0E0,0E0,0E0],"parents":[2147483647,0,0,1,1,2,2,3,3,4,4,5,5,6,6,7,7,8,8,9,9,10,10,11,11,12,12,13,13,14,14,15,15,16,16,17,17,18,18,20,20,21,21,22,22,23,23,24,24,25,25,26,26,27,27,28,28,29,29,30,30,31,31,33,33,37,37,38,38,39,39,40,40,41,41,42,42,43,43,44,44,45,45,46,46,47,47,48,48,49,49,50,50,51,51,52,52,53,53,54,54,55,55,56,56,57,57,58,58,59,59,60,60],"right_children":[2,4,6,8,10,12,14,16,18,20,22,24,26,28,30,32,34,36,38,-1,40,42,44,46,48,50,52,54,56,58,60,62,-1,64,-1,-1,-1,66,68,70,72,74,76,78,80,82,84,86,88,90,92,94,96,98,100,102,104,106,108,110,112,-1,-1,-1,-1,-1,-1,-1,-1,-1,-1,-1,-1,-1,-1,-1,-1,-1,-1,-1,-1,-1,-1,-1,-1,-1,-1,-1,-1,-1,-1,-1,-1,-1,-1,-1,-1,-1,-1,-1,-1,-1,-1,-1,-1,-1,-1,-1,-1,-1,-1,-1,-1],"split_conditions":[-6.9606833E0,-5.148786E0,1.6295286E0,9.469487E0,4.1408333E-1,6.409898E-1,-3.2959496E1,1.5909102E1,-1.4171619E1,6.296056E-1,2.1030241E2,6.6953087E-1,1.472792E6,1.7896079E0,9.008097E1,-9.575604E1,-1.5552697E1,3.6188776E2,1.3813465E0,-1.1363321E-1,-7.5872245E0,2.8208947E-1,3.022807E2,-2.5172414E2,6.4916045E3,4.1908344E7,3.732121E3,-1.5722953E3,1.0009093E2,1.058702E6,4.0542892E-1,3.870468E8,-4.7472052E-2,-9.575604E1,-1.087945E-1,1.7633457E-1,1.547806E-2,2.0315406E3,4.9689974E9,5.06787E5,4.736174E1,1.119345E0,3.283205E1,-1.3878068E0,1.4957085E2,5.4256573E2,7.989667E-2,-1.69581E1,9.475648E3,7.9378927E-1,1.2034246E0,-2.2324127E1,7.392967E1,4.771489E1,1.043535E0,7.8388E1,1.11779E5,5.934249E-1,1.3111116E-1,3.655524E2,8.891378E1,1.7682716E-2,1.3467988E-1,-6.926873E-2,7.893997E-2,1.492577E-1,1.679332E-2,-4.107769E-3,9.089666E-2,-5.2097946E-2,2.2849001E-2,9.2595436E-2,-6.823015E-2,1.2330292E-2,4.75302E-2,1.2005269E-1,2.6708683E-2,-7.88016E-2,-1.08401645E-2,1.2090578E-1,-2.118794E-2,-1.9422451E-2,-5.392888E-2,-3.3503555E-2,-5.185314E-3,4.557768E-3,-1.0701821E-2,1.697928E-1,2.8937915E-2,1.0360932E-1,-1.7708948E-2,-4.155723E-3,-2.313867E-2,-2.351495E-2,1.9295873E-2,1.442389E-3,-8.258509E-2,1.0256794E-2,-1.0342451E-1,3.2882717E-2,1.0282343E-1,2.4093946E-2,-2.547918E-2,-8.872061E-3,1.2554292E-1,-3.3507776E-2,1.8676486E-2,5.971402E-3,-1.644417E-2,-4.3724734E-2,9.117013E-2,7.1009435E-2,-6.6995464E-2],"split_indices":[13,28,28,12,22,8,23,10,13,7,19,22,4,28,10,23,13,25,22,0,13,18,15,25,5,20,25,25,8,4,18,20,0,23,0,0,0,1,20,4,10,7,15,28,25,16,18,9,6,22,7,14,12,10,7,19,4,22,18,0,12,0,0,0,0,0,0,0,0,0,0,0,0,0,0,0,0,0,0,0,0,0,0,0,0,0,0,0,0,0,0,0,0,0,0,0,0,0,0,0,0,0,0,0,0,0,0,0,0,0,0,0,0],"split_type":[0,0,0,0,0,0,0,0,0,0,0,0,0,0,0,0,0,0,0,0,0,0,0,0,0,0,0,0,0,0,0,0,0,0,0,0,0,0,0,0,0,0,0,0,0,0,0,0,0,0,0,0,0,0,0,0,0,0,0,0,0,0,0,0,0,0,0,0,0,0,0,0,0,0,0,0,0,0,0,0,0,0,0,0,0,0,0,0,0,0,0,0,0,0,0,0,0,0,0,0,0,0,0,0,0,0,0,0,0,0,0,0,0],"sum_hessian":[7.0105503E3,7.482643E2,6.262286E3,4.997402E1,6.982902E2,5.095488E3,1.1667982E3,1.3230906E1,3.6743114E1,6.876383E1,6.295264E2,2.2417847E3,2.853703E3,4.0614438E2,7.606538E2,6.373747E0,6.857159E0,1.06256075E1,2.6117506E1,3.862088E0,6.490175E1,5.639167E2,6.560973E1,9.518158E2,1.289969E3,2.0738962E3,7.7980676E2,5.7562218E1,3.4858215E2,7.28747E2,3.190684E1,5.164539E0,1.2092079E0,3.6895227E0,3.1676364E0,8.659637E0,1.9659699E0,8.932172E0,1.7185333E1,5.305978E1,1.1841968E1,5.0058374E2,6.3332943E1,5.12457E1,1.4364034E1,3.787513E2,5.7306445E2,1.2826947E3,7.2742877E0,3.0641563E1,2.0432546E3,7.445884E2,3.5218384E1,4.1396174E0,5.34226E1,3.3855698E2,1.0025177E1,2.770027E2,4.5174432E2,2.3397926E1,8.508913E0,1.4664792E0,3.6980598E0,2.4581513E0,1.2313713E0,6.9659286E0,1.9662434E0,1.2742045E1,4.443288E0,3.396831E1,1.9091467E1,9.184156E0,2.6578114E0,4.1153055E2,8.9053185E1,2.837384E1,3.4959103E1,1.3223826E1,3.8021873E1,6.3470993E0,8.016934E0,1.2950993E2,2.4924138E2,1.4836304E2,4.2470142E2,4.250584E2,8.576363E2,3.8906837E0,3.383604E0,1.5572744E1,1.5068819E1,1.821376E3,2.218787E2,4.236661E1,7.022218E2,1.8464598E1,1.6753786E1,2.674581E0,1.4650366E0,3.2886997E1,2.0535603E1,2.7974197E2,5.8815018E1,2.4499953E0,7.575182E0,2.9707085E1,2.472956E2,1.9893877E2,2.5280556E2,2.6710997E0,2.0726828E1,2.1839945E0,6.3249187E0],"tree_param":{"num_deleted":"0","num_feature":"29","num_nodes":"113","size_leaf_vector":"1"}},{"base_weights":[-5.4151844E-3,1.5313625E-1,-2.429535E-2,2.5886235E-1,5.458038E-2,-5.3515233E-2,1.00552805E-1,1.7507955E-1,7.0055056E-1,-1.7216548E-1,1.4756747E-1,1.7804694E-1,-7.198702E-2,2.1809761E-1,4.017957E-2,3.0553868E-1,-1.13492824E-1,-5.2060515E-1,7.805849E-1,-8.124291E-1,-3.6797583E-2,9.878096E-1,6.332253E-2,6.7977524E-1,1.2877189E-1,-2.1490376E-1,-4.37282E-2,1.7229998E-1,6.7905796E-1,7.128916E-1,2.4392381E-2,-2.6193509E-1,3.8020438E-1,1.0473094E-1,-4.678326E-1,-1.0301019E-1,2.515079E-2,-2.5372422E-1,8.8843054E-1,4.5641523E-2,-9.1961706E-1,-1.7958571E-1,3.191014E-1,1.1168283E0,-2.434942E-2,-6.768725E-2,2.9510733E-1,1.0381424E0,-2.0259525E-1,3.4027287E-1,1.2479895E-2,-3.3015317E-1,1.0661068E-1,-1.6479252E-1,-1.4651501E-2,7.341789E-1,1.357573E-1,1.1520431E0,2.7462544E-2,-3.0717197E-1,9.3319386E-1,-7.170358E-2,1.24584794E-1,-5.478688E-2,9.460782E-2,4.9554914E-2,6.5584867E-3,2.4981929E-2,-4.661914E-2,-1.3663189E-1,-3.257083E-2,8.5764624E-2,-1.0269149E-1,2.2324478E-2,1.0910465E-1,-1.03576794E-1,3.9919067E-2,5.3195972E-2,-2.950655E-2,-2.6270552E-2,6.8388514E-2,1.23432875E-1,1.149572E-3,2.3679357E-2,-2.0497322E-2,1.0916139E-2,9.763915E-2,2.9269878E-2,1.2376664E-1,5.1605273E-2,-6.198562E-2,1.5315086E-2,6.048547E-2,8.492057E-3,-3.8836967E-2,-5.1684447E-2,-2.354327E-2,3.1237856E-2,-9.548976E-3,5.7565164E-2,-1.7375156E-2,-3.666112E-3,2.0114187E-2,9.714216E-2,-7.220258E-2,1.1105681E-2,7.598093E-2,7.944741E-2,1.7298E-1,-6.642895E-2,5.1496375E-2,-9.7818986E-2,3.5437822E-2,-2.9522711E-2,1.16868034E-1,1.993052E-3,-3.436176E-2,-1.1263064E-2,2.188462E-2],"categories":[],"categories_nodes":[],"categories_segments":[],"categories_sizes":[],"default_left":[0,0,0,0,0,0,0,0,0,0,0,0,0,0,0,0,0,0,0,0,0,0,0,0,0,0,0,0,0,0,0,0,0,0,0,0,0,0,0,0,0,0,0,0,0,0,0,0,0,0,0,0,0,0,0,0,0,0,0,0,0,0,0,0,0,0,0,0,0,0,0,0,0,0,0,0,0,0,0,0,0,0,0,0,0,0,0,0,0,0,0,0,0,0,0,0,0,0,0,0,0,0,0,0,0,0,0,0,0,0,0,0,0,0,0,0,0,0,0],"id":4,"left_children":[1,3,5,7,9,11,13,15,17,19,21,23,25,27,29,31,33,35,37,39,41,43,45,47,49,51,53,55,57,59,61,63,65,67,69,-1,-1,71,73,-1,75,77,79,81,-1,83,85,87,89,91,93,95,97,99,101,103,105,107,109,111,113,115,117,-1,-1,-1,-1,-1,-1,-1,-1,-1,-1,-1,-1,-1,-1,-1,-1,-1,-1,-1,-1,-1,-1,-1,-1,-1,-1,-1,-1,-1,-1,-1,-1,-1,-1,-1,-1,-1,-1,-1,-1,-1,-1,-1,-1,-1,-1,-1,-1,-1,-1,-1,-1,-1,-1,-1,-1],"loss_changes":[2.0941002E1,7.7423325E0,2.2809011E1,1.31573715E1,8.175062E0,2.1682148E1,8.406823E0,1.1440843E1,5.965996E0,9.752979E0,1.937895E1,9.172413E0,1.8941977E1,8.373314E0,8.316217E0,8.951746E0,7.3992863E0,1.871508E0,6.2250404E0,3.0924816E0,4.845471E0,4.2370243E0,7.6325016E0,1.0728103E1,8.414695E0,2.8730568E1,1.3793333E1,7.439287E0,1.1065306E1,4.3220854E0,7.4007435E0,9.113786E0,6.6824074E0,5.0570545E0,4.2047095E0,0E0,0E0,5.913235E0,6.35104E0,0E0,3.2400808E0,5.7348623E0,5.9817886E0,2.9432583E0,0E0,6.777535E0,1.1385326E1,3.1802692E0,3.4516056E0,5.9176397E0,6.4762826E0,9.963413E0,8.559122E0,5.1341896E0,1.5021575E1,8.369001E0,5.2486305E0,2.9306011E0,5.7944913E0,2.0964553E0,4.6887007E0,9.786934E0,8.437052E0,0E0,0E0,0E0,0E0,0E0,0E0,0E0,0E0,0E0,0E0,0E0,0E0,0E0,0E0,0E0,0E0,0E0,0E0,0E0,0E0,0E0,0E0,0E0,0E0,0E0,0E0,0E0,0E0,0E0,0E0,0E0,0E0,0E0,0E0,0E0,0E0,0E0,0E0,0E0,0E0,0E0,0E0,0E0,0E0,0E0,0E0,0E0,0E0,0E0,0E0,0E0,0E0,0E0,0E0,0E0,0E0],"parents":[2147483647,0,0,1,1,2,2,3,3,4,4,5,5,6,6,7,7,8,8,9,9,10,10,11,11,12,12,13,13,14,14,15,15,16,16,17,17,18,18,19,19,20,20,21,21,22,22,23,23,24,24,25,25,26,26,27,27,28,28,29,29,30,30,31,31,32,32,33,33,34,34,37,37,38,38,40,40,41,41,42,42,43,43,45,45,46,46,47,47,48,48,49,49,50,50,51,51,52,52,53,53,54,54,55,55,56,56,57,57,58,58,59,59,60,60,61,61,62,62],"right_children":[2,4,6,8,10,12,14,16,18,20,22,24,26,28,30,32,34,36,38,40,42,44,46,48,50,52,54,56,58,60,62,64,66,68,70,-1,-1,72,74,-1,76,78,80,82,-1,84,86,88,90,92,94,96,98,100,102,104,106,108,110,112,114,116,118,-1,-1,-1,-1,-1,-1,-1,-1,-1,-1,-1,-1,-1,-1,-1,-1,-1,-1,-1,-1,-1,-1,-1,-1,-1,-1,-1,-1,-1,-1,-1,-1,-1,-1,-1,-1,-1,-1,-1,-1,-1,-1,-1,-1,-1,-1,-1,-1,-1,-1,-1,-1,-1,-1,-1,-1],"split_conditions":[-6.9606833E0,9.761452E2,1.6295286E0,7.845453E2,1.0705043E3,3.870468E8,7.86576E5,2.2155069E2,2.6652566E-1,3.27154E5,1.2152664E3,3.6951295E-1,2.4557985E9,1.4704936E2,-1.01221504E2,4.5378187E-1,-1.8394743E0,7.5967346E2,5.122268E2,2.6652566E-1,1.5086703E0,-2.2882962E0,4.447013E9,7.806263E1,4.6525253E1,1.3288085E1,2.15127E5,-7.050098E1,4.9360237E1,1.10241E6,1.4723854E0,1.1042639E10,-8.121349E0,1.2016599E3,-1.2356428E0,-1.0301019E-1,2.515079E-2,3.329476E2,2.3454473E1,4.5641523E-2,-7.530347E1,-1.59513035E1,4.532659E1,2.936363E6,-2.434942E-2,-1.1462881E1,7.044868E0,1.9618494E1,5.9147465E1,9.8988983E2,1.3623218E8,-2.8024255E2,4.0444336E0,-3.5804067E0,2.1981208E3,2.4360614E2,3.5100037E-1,2.1812808E3,3.16095E3,1.0269676E-1,1.8552261E2,4.6429077E1,1.4037953E1,-5.478688E-2,9.460782E-2,4.9554914E-2,6.5584867E-3,2.4981929E-2,-4.661914E-2,-1.3663189E-1,-3.257083E-2,8.5764624E-2,-1.0269149E-1,2.2324478E-2,1.0910465E-1,-1.03576794E-1,3.9919067E-2,5.3195972E-2,-2.950655E-2,-2.6270552E-2,6.8388514E-2,1.23432875E-1,1.149572E-3,2.3679357E-2,-2.0497322E-2,1.0916139E-2,9.763915E-2,2.9269878E-2,1.2376664E-1,5.1605273E-2,-6.198562E-2,1.5315086E-2,6.048547E-2,8.492057E-3,-3.8836967E-2,-5.1684447E-2,-2.354327E-2,3.1237856E-2,-9.548976E-3,5.7565164E-2,-1.7375156E-2,-3.666112E-3,2.0114187E-2,9.714216E-2,-7.220258E-2,1.1105681E-2,7.598093E-2,7.944741E-2,1.7298E-1,-6.642895E-2,5.1496375E-2,-9.7818986E-2,3.5437822E-2,-2.9522711E-2,1.16868034E-1,1.993052E-3,-3.436176E-2,-1.1263064E-2,2.188462E-2],"split_indices":[13,16,28,16,17,20,4,25,22,4,0,22,20,24,24,22,9,0,17,22,22,8,20,15,15,8,4,8,8,4,22,20,13,25,9,0,0,0,15,0,14,26,15,4,0,13,8,19,11,6,20,25,13,28,17,19,18,6,0,18,0,14,15,0,0,0,0,0,0,0,0,0,0,0,0,0,0,0,0,0,0,0,0,0,0,0,0,0,0,0,0,0,0,0,0,0,0,0,0,0,0,0,0,0,0,0,0,0,0,0,0,0,0,0,0,0,0,0,0],"split_type":[0,0,0,0,0,0,0,0,0,0,0,0,0,0,0,0,0,0,0,0,0,0,0,0,0,0,0,0,0,0,0,0,0,0,0,0,0,0,0,0,0,0,0,0,0,0,0,0,0,0,0,0,0,0,0,0,0,0,0,0,0,0,0,0,0,0,0,0,0,0,0,0,0,0,0,0,0,0,0,0,0,0,0,0,0,0,0,0,0,0,0,0,0,0,0,0,0,0,0,0,0,0,0,0,0,0,0,0,0,0,0,0,0,0,0,0,0,0,0],"sum_hessian":[6.9933003E3,7.433873E2,6.2499126E3,3.5786264E2,3.8552472E2,5.065044E3,1.1848685E3,3.0197763E2,5.588503E1,1.1187348E2,2.736512E2,3.735526E2,4.6914917E3,4.01177E2,7.836916E2,2.0792097E2,9.4056656E1,3.0988166E0,5.2786213E1,1.865192E1,9.322156E1,2.395941E1,2.4969182E2,3.2261738E1,3.4129086E2,7.7341284E2,3.9180786E3,3.6617075E2,3.5006245E1,1.6957434E1,7.6673413E2,2.388468E1,1.8403629E2,5.864436E1,3.5412296E1,1.665599E0,1.4332175E0,4.856509E0,4.7929703E1,1.1991248E0,1.7452797E1,6.688316E1,2.6338396E1,2.177115E1,2.1882582E0,1.5997722E2,8.97146E1,2.2817905E1,9.443834E0,1.2039738E2,2.208935E2,5.6931165E2,2.041012E2,7.578813E2,3.1601973E3,2.1194466E1,3.449763E2,1.9838028E1,1.5168216E1,2.9417865E0,1.4015648E1,3.915129E2,3.7522122E2,1.9755156E1,4.129524E0,1.3424483E2,4.9791466E1,4.720946E1,1.1434899E1,3.660114E0,3.175218E1,1.9476959E0,2.9088132E0,1.1681449E1,3.6248253E1,1.6237349E1,1.2154484E0,8.835491E0,5.8047672E1,1.0257757E1,1.6080639E1,1.9573702E1,2.1974502E0,4.9490185E1,1.1048703E2,7.139003E1,1.8324574E1,5.3387465E0,1.7479158E1,3.3820944E0,6.0617394E0,7.144657E1,4.8950806E1,1.8775159E2,3.3141914E1,1.9012479E2,3.7918686E2,1.0086261E2,1.0323859E2,8.304203E0,7.495771E2,2.8684617E3,2.9173563E2,1.8511507E1,2.6829586E0,3.3297482E2,1.2001455E1,1.3721194E1,6.1168346E0,6.1205983E0,9.047618E0,1.2228267E0,1.7189598E0,2.2137702E0,1.1801878E1,2.9352325E2,9.798964E1,1.0664549E2,2.6857574E2],"tree_param":{"num_deleted":"0","num_feature":"29","num_nodes":"119","size_leaf_vector":"1"}},{"base_weights":[4.986085E-3,-1.4490676E-2,1.5147515E-1,2.2217077E-1,-2.45132E-2,5.3243643E-1,1.2381922E-1,4.362243E-1,-6.679867E-2,-1.09319374E-1,5.345846E-5,7.408227E-1,-1.1180217E-1,-7.5122416E-1,1.3263865E-1,7.2279E-1,1.8409859E-1,1.4139342E-1,-4.3260267E-1,-2.0234323E-1,8.831557E-3,-1.1464397E-2,2.2365788E-1,1.6507016E-1,1.0859301E0,-8.4704864E-1,1.1762762E0,-9.9981797E-1,1.9836556E-2,6.3576615E-1,1.1325625E-1,1.7105613E-3,8.418007E-1,-4.335742E-1,3.4601974E-1,-8.4783185E-1,2.6164985E-1,3.79602E-1,-6.8677026E-1,5.0275378E-2,-2.7209693E-1,3.9063466E-1,-2.7429253E-2,-5.6487275E-3,-4.0770558E-1,2.5550863E-1,-1.0681144E0,6.2221074E-1,-4.7679642E-1,-3.7744373E-1,1.253396E0,-1.2877356E-1,-8.550052E-2,-7.657036E-3,1.5394296E-1,-5.5238465E-3,-1.2121514E-1,9.376126E-1,1.0048016E-1,1.5865819E-1,-3.3979E-2,6.877952E-2,-5.533454E-2,1.1360788E-1,4.878571E-2,3.1921104E-2,-8.750531E-2,-1.8039294E-2,6.616795E-2,-9.98413E-3,-1.3365777E-1,-8.1537016E-2,3.280639E-2,1.062872E-1,-1.3529274E-2,-1.413733E-1,-5.0207537E-2,-5.2979518E-2,1.7068889E-2,-2.3994626E-2,-7.755631E-2,4.9384505E-2,-8.308435E-2,-9.413914E-3,1.5628574E-2,-4.43362E-3,5.9471084E-3,4.2026196E-2,-5.5568486E-2,-1.5407935E-2,3.597178E-2,-1.3144399E-1,-2.1788795E-2,1.3519817E-3,1.349225E-1,-8.763734E-2,3.4565523E-2,-9.735557E-2,3.8975444E-2,1.3465425E-1,3.1193092E-3,6.64337E-2,-1.0235323E-1,3.722829E-2,1.3427365E-1,-1.1955998E-1,5.4728746E-2,7.6992246E-3,3.14376E-2,4.1394487E-2,-1.5941633E-2],"categories":[],"categories_nodes":[],"categories_segments":[],"categories_sizes":[],"default_left":[0,0,0,0,0,0,0,0,0,0,0,0,0,0,0,0,0,0,0,0,0,0,0,0,0,0,0,0,0,0,0,0,0,0,0,0,0,0,0,0,0,0,0,0,0,0,0,0,0,0,0,0,0,0,0,0,0,0,0,0,0,0,0,0,0,0,0,0,0,0,0,0,0,0,0,0,0,0,0,0,0,0,0,0,0,0,0,0,0,0,0,0,0,0,0,0,0,0,0,0,0,0,0,0,0,0,0,0,0,0,0],"id":5,"left_children":[1,3,5,7,9,11,13,15,17,19,21,23,25,27,29,31,33,35,37,39,41,43,45,47,49,51,53,55,-1,57,59,61,63,65,67,69,71,73,75,77,79,81,83,85,87,89,91,93,95,97,99,-1,101,-1,-1,-1,-1,103,105,107,109,-1,-1,-1,-1,-1,-1,-1,-1,-1,-1,-1,-1,-1,-1,-1,-1,-1,-1,-1,-1,-1,-1,-1,-1,-1,-1,-1,-1,-1,-1,-1,-1,-1,-1,-1,-1,-1,-1,-1,-1,-1,-1,-1,-1,-1,-1,-1,-1,-1,-1],"loss_changes":[2.0043549E1,1.471367E1,8.620047E0,1.5618826E1,1.2396004E1,7.5330915E0,6.0414543E0,1.0337418E1,8.295111E0,1.4690246E1,1.1886822E1,8.178528E0,1.4664476E1,2.0473104E0,7.3695393E0,5.7898827E0,7.994524E0,8.508175E0,8.40691E0,1.3190081E1,8.174286E0,1.0112563E1,9.575364E0,5.268161E0,6.874178E0,3.1684585E0,2.6944451E0,1.2112656E0,0E0,4.444412E0,4.9254007E0,4.402865E0,5.478882E0,5.840848E0,1.053793E1,2.7128787E0,4.7645574E0,3.679339E0,3.3734617E0,1.145072E1,9.301319E0,6.8663144E0,6.6260257E0,1.090343E1,8.010875E0,9.508032E0,8.934665E-1,4.5527596E0,2.8050542E0,1.9575942E0,2.6525993E0,0E0,3.9520917E0,0E0,0E0,0E0,0E0,3.586339E0,7.168323E0,7.1317406E0,9.858685E0,0E0,0E0,0E0,0E0,0E0,0E0,0E0,0E0,0E0,0E0,0E0,0E0,0E0,0E0,0E0,0E0,0E0,0E0,0E0,0E0,0E0,0E0,0E0,0E0,0E0,0E0,0E0,0E0,0E0,0E0,0E0,0E0,0E0,0E0,0E0,0E0,0E0,0E0,0E0,0E0,0E0,0E0,0E0,0E0,0E0,0E0,0E0,0E0,0E0,0E0],"parents":[2147483647,0,0,1,1,2,2,3,3,4,4,5,5,6,6,7,7,8,8,9,9,10,10,11,11,12,12,13,13,14,14,15,15,16,16,17,17,18,18,19,19,20,20,21,21,22,22,23,23,24,24,25,25,26,26,27,27,29,29,30,30,31,31,32,32,33,33,34,34,35,35,36,36,37,37,38,38,39,39,40,40,41,41,42,42,43,43,44,44,45,45,46,46,47,47,48,48,49,49,50,50,52,52,57,57,58,58,59,59,60,60],"right_children":[2,4,6,8,10,12,14,16,18,20,22,24,26,28,30,32,34,36,38,40,42,44,46,48,50,52,54,56,-1,58,60,62,64,66,68,70,72,74,76,78,80,82,84,86,88,90,92,94,96,98,100,-1,102,-1,-1,-1,-1,104,106,108,110,-1,-1,-1,-1,-1,-1,-1,-1,-1,-1,-1,-1,-1,-1,-1,-1,-1,-1,-1,-1,-1,-1,-1,-1,-1,-1,-1,-1,-1,-1,-1,-1,-1,-1,-1,-1,-1,-1,-1,-1,-1,-1,-1,-1,-1,-1,-1,-1,-1,-1],"split_conditions":[2.2716157E0,-3.5804067E0,-1.4133971E3,9.434091E2,2.6827E5,3.7470215E1,1.6767415E0,2.667398E6,2.75384E2,4.3894544E0,1.246995E2,3.8667297E0,2.9168508E3,9.847356E-1,1.5427133E2,-9.20567E2,6.59247E-1,1.2159447E3,3.56474E5,1.633726E1,8.658423E0,5.2016395E-1,9.507982E1,-4.2327E0,4.51012E5,8.61946E1,1.1128556E0,4.470368E1,1.9836556E-2,4.0441117E0,4.9689974E9,5.9722534E2,-4.4244704E0,4.4281232E-1,5.507611E6,4.1381893E1,-3.635327E3,1.7473418E3,-2.539322E1,-1.3637903E0,2.0625088E0,2.7564714E3,8.214897E1,1.4342931E-1,3.154936E0,-1.1397517E2,5.902868E1,1.293572E6,-2.0000349E3,9.267267E2,1.4760625E1,-1.2877356E-1,1.817097E3,-7.657036E-3,1.5394296E-1,-5.5238465E-3,-1.2121514E-1,1.8920044E2,4.6677246E0,9.278502E1,3.1583712E1,6.877952E-2,-5.533454E-2,1.1360788E-1,4.878571E-2,3.1921104E-2,-8.750531E-2,-1.8039294E-2,6.616795E-2,-9.98413E-3,-1.3365777E-1,-8.1537016E-2,3.280639E-2,1.062872E-1,-1.3529274E-2,-1.413733E-1,-5.0207537E-2,-5.2979518E-2,1.7068889E-2,-2.3994626E-2,-7.755631E-2,4.9384505E-2,-8.308435E-2,-9.413914E-3,1.5628574E-2,-4.43362E-3,5.9471084E-3,4.2026196E-2,-5.5568486E-2,-1.5407935E-2,3.597178E-2,-1.3144399E-1,-2.1788795E-2,1.3519817E-3,1.349225E-1,-8.763734E-2,3.4565523E-2,-9.735557E-2,3.8975444E-2,1.3465425E-1,3.1193092E-3,6.64337E-2,-1.0235323E-1,3.722829E-2,1.3427365E-1,-1.1955998E-1,5.4728746E-2,7.6992246E-3,3.14376E-2,4.1394487E-2,-1.5941633E-2],"split_indices":[28,28,25,2,4,8,19,4,25,8,15,14,0,7,16,25,7,5,4,12,8,18,12,8,4,12,7,0,0,28,20,5,28,7,4,15,25,0,26,28,8,25,12,18,12,8,26,4,25,0,26,0,0,0,0,0,0,25,28,24,12,0,0,0,0,0,0,0,0,0,0,0,0,0,0,0,0,0,0,0,0,0,0,0,0,0,0,0,0,0,0,0,0,0,0,0,0,0,0,0,0,0,0,0,0,0,0,0,0,0,0],"split_type":[0,0,0,0,0,0,0,0,0,0,0,0,0,0,0,0,0,0,0,0,0,0,0,0,0,0,0,0,0,0,0,0,0,0,0,0,0,0,0,0,0,0,0,0,0,0,0,0,0,0,0,0,0,0,0,0,0,0,0,0,0,0,0,0,0,0,0,0,0,0,0,0,0,0,0,0,0,0,0,0,0,0,0,0,0,0,0,0,0,0,0,0,0,0,0,0,0,0,0,0,0,0,0,0,0,0,0,0,0,0,0],"sum_hessian":[7.023334E3,6.1999126E3,8.2342126E2,2.5103629E2,5.9488765E3,5.4495274E1,7.68926E2,1.4391899E2,1.07117294E2,1.3354254E3,4.613451E3,4.106305E1,1.3432226E1,6.832602E0,7.6209344E2,6.6485214E1,7.743378E1,6.865612E1,3.8461174E1,7.4676324E2,5.886622E2,4.3883555E3,2.2509532E2,1.5943077E1,2.511997E1,8.769125E0,4.6631002E0,5.3730836E0,1.4595183E0,2.7090025E1,7.350034E2,9.562275E0,5.6922943E1,1.5734491E1,6.1699284E1,6.785838E0,6.187028E1,9.049513E0,2.941166E1,1.6164226E2,5.8512103E2,5.021001E1,5.3845215E2,4.3258784E3,6.247708E1,2.2046169E2,4.6336417E0,9.329315E0,6.613762E0,2.4507375E0,2.2669233E1,5.117072E0,3.6520534E0,1.2252495E0,3.437851E0,1.2174273E0,4.1556563E0,1.6841522E1,1.0248503E1,5.617139E2,1.7328949E2,4.1694374E0,5.392837E0,2.9874617E1,2.7048326E1,5.918886E0,9.815605E0,2.3289263E1,3.8410023E1,3.1576147E0,3.6282234E0,2.9386032E0,5.893168E1,3.4315562E0,5.617957E0,4.610443E0,2.4801216E1,2.7201944E1,1.344403E2,5.513868E2,3.373423E1,4.6847286E1,3.3627234E0,3.953733E2,1.4307886E2,2.7138865E3,1.6119921E3,9.1941805E0,5.32829E1,4.4617325E1,1.7584436E2,3.169418E0,1.4642235E0,5.632291E0,3.6970248E0,4.4070797E0,2.2066822E0,1.2277792E0,1.2229583E0,2.0969381E1,1.6998515E0,2.1917791E0,1.4602742E0,7.83171E0,9.009813E0,2.1976829E0,8.050819E0,3.6945056E2,1.9226334E2,3.740829E1,1.358812E2],"tree_param":{"num_deleted":"0","num_feature":"29","num_nodes":"111","size_leaf_vector":"1"}},{"base_weights":[-5.987453E-3,2.563868E-1,-1.568781E-2,5.1927793E-1,1.7124638E-1,-3.1679478E-2,1.2420126E-1,1.322812E0,3.6862245E-1,9.982796E-2,6.0320264E-1,1.5745375E-1,-4.3918084E-2,2.62061E-1,5.012632E-2,-7.3834294E-3,1.5488758E0,-7.642491E-1,4.703732E-1,7.3002994E-1,3.6957562E-2,8.200568E-1,-3.0232385E-1,5.4971164E-1,5.8357637E-2,-1.5136446E-1,-1.2453716E-2,3.6247033E-1,-2.8614655E-1,3.9419442E-2,1.1176622E0,1.7163126E-1,3.5310373E-2,3.0234873E-2,-1.2374423E-1,1.5900803E-1,3.3562642E-1,1.250363E0,2.672352E-1,-5.632112E-1,9.2290536E-2,9.2276037E-1,-3.5435066E-2,7.917414E-2,-7.621562E-1,6.7849106E-1,-4.1253304E-1,2.309214E-2,9.798846E-1,2.4447355E-1,-1.6984853E-1,-6.0847387E-2,3.260696E-2,3.039552E-1,1.1643628E0,-6.683437E-1,1.2864085E-1,6.5170026E-1,2.2245372E-2,3.740404E-2,1.285762E-1,4.1657377E-2,-8.5011564E-2,3.1729955E-2,1.6421919E-1,-7.2236314E-2,7.388232E-2,-1.0321905E-1,1.0571281E-2,1.2528373E-1,4.199668E-3,5.7909306E-2,1.7513724E-1,-1.0880454E-1,-2.7019715E-2,9.9523894E-2,3.9642762E-2,7.9934716E-2,-8.462887E-2,1.0139396E-2,-4.0869273E-2,-3.762568E-2,1.2766431E-1,1.112693E-2,1.2572257E-1,-1.805921E-2,3.463036E-2,-9.9954E-3,1.0398424E-2,4.337436E-2,2.3635894E-3,3.648305E-2,-2.2382589E-2,2.2376454E-2,1.5246123E-1,-8.3922364E-2,7.168545E-2,5.6297984E-2,-2.491882E-2,-3.8821604E-2,9.5436506E-2,5.2635097E-3,-3.7253536E-2],"categories":[],"categories_nodes":[],"categories_segments":[],"categories_sizes":[],"default_left":[0,0,0,0,0,0,0,0,0,0,0,0,0,0,0,0,0,0,0,0,0,0,0,0,0,0,0,0,0,0,0,0,0,0,0,0,0,0,0,0,0,0,0,0,0,0,0,0,0,0,0,0,0,0,0,0,0,0,0,0,0,0,0,0,0,0,0,0,0,0,0,0,0,0,0,0,0,0,0,0,0,0,0,0,0,0,0,0,0,0,0,0,0,0,0,0,0,0,0,0,0,0,0],"id":6,"left_children":[1,3,5,7,9,11,13,15,17,19,21,23,25,27,29,-1,31,33,35,37,39,41,43,45,47,49,51,53,55,57,59,-1,-1,-1,-1,-1,61,63,65,67,69,71,-1,-1,73,75,77,79,81,83,85,87,89,91,93,95,97,99,101,-1,-1,-1,-1,-1,-1,-1,-1,-1,-1,-1,-1,-1,-1,-1,-1,-1,-1,-1,-1,-1,-1,-1,-1,-1,-1,-1,-1,-1,-1,-1,-1,-1,-1,-1,-1,-1,-1,-1,-1,-1,-1,-1,-1],"loss_changes":[1.7740831E1,5.473686E0,1.5040139E1,6.812742E0,5.777091E0,1.3970896E1,7.030529E0,2.998623E0,6.3731546E0,6.453843E0,5.4806747E0,1.4228236E1,1.9156075E1,1.3360928E1,5.098343E0,0E0,9.772816E-1,2.7364461E0,6.7822742E0,3.2260885E0,5.0262294E0,2.9526138E0,3.5611956E0,9.433613E0,9.531522E0,9.432402E0,9.562659E0,9.21834E0,6.0851717E0,4.6803336E0,7.295513E-2,0E0,0E0,0E0,0E0,0E0,4.630027E0,1.9240093E0,4.778988E0,4.119815E0,8.002278E0,4.765257E0,0E0,0E0,4.5135403E-1,5.4599667E0,5.5867195E0,9.649404E0,4.8315144E0,7.639939E0,6.8656235E0,1.3639359E1,8.1622E0,6.2336693E0,4.240261E0,5.3016605E0,3.256022E0,4.1934905E0,5.2423534E0,0E0,0E0,0E0,0E0,0E0,0E0,0E0,0E0,0E0,0E0,0E0,0E0,0E0,0E0,0E0,0E0,0E0,0E0,0E0,0E0,0E0,0E0,0E0,0E0,0E0,0E0,0E0,0E0,0E0,0E0,0E0,0E0,0E0,0E0,0E0,0E0,0E0,0E0,0E0,0E0,0E0,0E0,0E0,0E0],"parents":[2147483647,0,0,1,1,2,2,3,3,4,4,5,5,6,6,7,7,8,8,9,9,10,10,11,11,12,12,13,13,14,14,16,16,17,17,18,18,19,19,20,20,21,21,22,22,23,23,24,24,25,25,26,26,27,27,28,28,29,29,30,30,36,36,37,37,38,38,39,39,40,40,41,41,44,44,45,45,46,46,47,47,48,48,49,49,50,50,51,51,52,52,53,53,54,54,55,55,56,56,57,57,58,58],"right_children":[2,4,6,8,10,12,14,16,18,20,22,24,26,28,30,-1,32,34,36,38,40,42,44,46,48,50,52,54,56,58,60,-1,-1,-1,-1,-1,62,64,66,68,70,72,-1,-1,74,76,78,80,82,84,86,88,90,92,94,96,98,100,102,-1,-1,-1,-1,-1,-1,-1,-1,-1,-1,-1,-1,-1,-1,-1,-1,-1,-1,-1,-1,-1,-1,-1,-1,-1,-1,-1,-1,-1,-1,-1,-1,-1,-1,-1,-1,-1,-1,-1,-1,-1,-1,-1,-1],"split_conditions":[-3.5804067E0,1.1305287E-1,2.5459807E0,4.243961E0,7.8902477E9,2.4267973E8,1.018087E6,6.424665E-2,-8.330538E0,-8.356176E1,6.9074896E2,1.661722E3,3.2162775E9,3.8547527E3,5.9976426E3,-7.3834294E-3,1.0965257E0,5.84379E2,-1.9629425E1,1.8098764E2,9.342512E0,8.1472614E2,5.300052E0,9.9369955E0,2.2716157E0,5.330968E-1,1.0127085E0,3.8203933E3,1.1690737E0,-1.4171619E1,4.9188805E0,1.7163126E-1,3.5310373E-2,3.0234873E-2,-1.2374423E-1,1.5900803E-1,7.326486E1,1.9989717E-1,2.9649466E2,-4.4244704E0,1.1787779E1,2.4415158E-1,-3.5435066E-2,7.917414E-2,1.1757122E1,-1.5803026E-1,1.0078259E0,1.3623218E8,8.0760396E-1,4.3298822E2,9.406346E1,4.3872E1,-7.684052E1,3.034193E3,2.9879E5,8.31554E5,4.62438E5,2.108614E6,8.012278E1,3.740404E-2,1.285762E-1,4.1657377E-2,-8.5011564E-2,3.1729955E-2,1.6421919E-1,-7.2236314E-2,7.388232E-2,-1.0321905E-1,1.0571281E-2,1.2528373E-1,4.199668E-3,5.7909306E-2,1.7513724E-1,-1.0880454E-1,-2.7019715E-2,9.9523894E-2,3.9642762E-2,7.9934716E-2,-8.462887E-2,1.0139396E-2,-4.0869273E-2,-3.762568E-2,1.2766431E-1,1.112693E-2,1.2572257E-1,-1.805921E-2,3.463036E-2,-9.9954E-3,1.0398424E-2,4.337436E-2,2.3635894E-3,3.648305E-2,-2.2382589E-2,2.2376454E-2,1.5246123E-1,-8.3922364E-2,7.168545E-2,5.6297984E-2,-2.491882E-2,-3.8821604E-2,9.5436506E-2,5.2635097E-3,-3.7253536E-2],"split_indices":[28,18,28,11,20,20,4,18,13,8,1,5,20,5,6,0,7,0,8,19,19,16,11,13,28,7,7,16,7,13,13,0,0,0,0,0,12,18,19,28,15,18,0,0,8,28,26,20,7,21,11,15,8,16,4,4,4,4,15,0,0,0,0,0,0,0,0,0,0,0,0,0,0,0,0,0,0,0,0,0,0,0,0,0,0,0,0,0,0,0,0,0,0,0,0,0,0,0,0,0,0,0,0],"split_type":[0,0,0,0,0,0,0,0,0,0,0,0,0,0,0,0,0,0,0,0,0,0,0,0,0,0,0,0,0,0,0,0,0,0,0,0,0,0,0,0,0,0,0,0,0,0,0,0,0,0,0,0,0,0,0,0,0,0,0,0,0,0,0,0,0,0,0,0,0,0,0,0,0,0,0,0,0,0,0,0,0,0,0,0,0,0,0,0,0,0,0,0,0,0,0,0,0,0,0,0,0,0,0],"sum_hessian":[6.9679375E3,2.4752325E2,6.720414E3,5.9305237E1,1.8821802E2,6.031667E3,6.887472E2,8.13518E0,5.117006E1,1.6257022E2,2.5647793E1,3.658604E2,5.665806E3,2.3984242E2,4.489048E2,1.2271447E0,6.9080358E0,3.680554E0,4.7489502E1,1.3784556E1,1.4878568E2,2.0768557E1,4.879236E0,7.286952E1,2.929909E2,1.2824862E3,4.3833203E3,2.029999E2,3.6842518E1,4.4547385E2,3.430965E0,5.677703E0,1.2303325E0,1.2420241E0,2.43853E0,3.9409382E0,4.3548565E1,5.6878185E0,8.096738E0,1.1784676E1,1.3700099E2,1.929542E1,1.4731364E0,1.2302753E0,3.648961E0,6.452842E1,8.341099E0,2.831791E2,9.811794E0,5.6669853E1,1.2258164E3,2.113327E3,2.2699932E3,1.9047942E2,1.2520483E1,1.8856396E1,1.7986122E1,1.1146269E1,4.3432758E2,1.2272221E0,2.203743E0,4.1372837E1,2.1757293E0,2.217373E0,3.4704456E0,2.4415429E0,5.6551948E0,6.608458E0,5.176217E0,4.697369E0,1.3230363E2,1.483957E1,4.45585E0,1.4661072E0,2.1828537E0,2.920441E1,3.5324013E1,1.9763833E0,6.3647156E0,2.4035687E2,4.2822227E1,1.7134947E0,8.0983E0,5.1063496E1,5.606359E0,1.2014585E3,2.4357912E1,1.7083994E3,4.0492743E2,4.8620132E1,2.221373E3,1.71058E2,1.9421423E1,3.9163022E0,8.604181E0,1.7136555E1,1.7198399E0,8.139361E0,9.846762E0,2.449038E0,8.69723E0,4.0408804E2,3.023952E1],"tree_param":{"num_deleted":"0","num_feature":"29","num_nodes":"103","size_leaf_vector":"1"}},{"base_weights":[3.8224803E-3,-8.8648185E-2,3.5027184E-2,2.3490037E-1,-1.0951463E-1,2.9340538E-1,2.4545873E-2,1.2180225E0,1.7865184E-1,-1.6076729E-1,2.2032885E-2,1.9661859E-1,7.384785E-1,-1.1533287E-2,9.25131E-2,2.3984456E-2,1.6642827E-1,-4.9044552E-1,2.742346E-1,-2.1873073E-1,1.5343311E-2,-3.718493E-2,1.747358E-1,2.8154737E-1,-3.0010226E-1,4.1571006E-1,1.327458E0,-3.755244E-2,1.1454884E-1,1.2468781E-1,-5.679696E-2,3.368062E-1,-1.0815347E0,7.181888E-1,5.3551506E-2,1.3191383E-1,-2.499724E-1,2.5096038E-1,-1.5352695E-1,1.24714725E-1,-1.5518755E-1,-1.3049035E-1,2.890484E-1,3.9847413E-1,-7.345743E-2,-5.1346415E-1,8.081598E-1,9.020171E-2,9.3642807E-1,1.5576901E0,-4.4899102E-2,2.2007981E-1,-5.0382383E-2,-2.6106218E-1,1.5742795E-1,7.246534E-1,1.16486646E-1,-1.793233E-1,1.4111803E-1,-4.219781E-2,1.0050807E-1,-1.5943883E-2,-1.3937627E-1,8.802923E-2,-6.872492E-2,-7.0937574E-2,1.9902745E-2,-4.148458E-2,3.724773E-2,1.2412459E-2,-2.7390873E-2,9.673902E-2,1.9289179E-2,-2.1791583E-2,7.185503E-2,-3.4894762E-3,3.6320217E-2,-1.8717268E-2,1.0083158E-1,-3.4438334E-2,8.3360635E-2,4.5700204E-2,7.510657E-3,4.782043E-2,-4.809266E-2,4.9121957E-2,-5.1525977E-2,-8.425235E-2,3.5042077E-2,1.1883183E-1,-1.0367922E-2,4.2802382E-2,-1.0794792E-1,1.20864585E-1,1.2180015E-2,1.9254221E-1,3.0092755E-2,-2.6428737E-3,4.2852476E-2,-6.847393E-2,-4.573842E-3,-3.3169683E-2,8.657768E-2,1.067963E-1,1.3860163E-2,9.2549026E-2,-1.0185827E-1,8.8625774E-2,1.1080678E-2,1.4389194E-2,-3.3220973E-2,1.3191216E-1,5.4833386E-3],"categories":[],"categories_nodes":[],"categories_segments":[],"categories_sizes":[],"default_left":[0,0,0,0,0,0,0,0,0,0,0,0,0,0,0,0,0,0,0,0,0,0,0,0,0,0,0,0,0,0,0,0,0,0,0,0,0,0,0,0,0,0,0,0,0,0,0,0,0,0,0,0,0,0,0,0,0,0,0,0,0,0,0,0,0,0,0,0,0,0,0,0,0,0,0,0,0,0,0,0,0,0,0,0,0,0,0,0,0,0,0,0,0,0,0,0,0,0,0,0,0,0,0,0,0,0,0,0,0,0,0,0,0],"id":7,"left_children":[1,3,5,7,9,11,13,15,17,19,21,23,25,27,29,-1,-1,31,33,35,37,39,41,43,45,47,49,51,53,55,57,59,61,63,65,67,69,71,73,75,77,79,81,83,85,87,89,91,93,95,-1,97,99,101,103,105,107,109,111,-1,-1,-1,-1,-1,-1,-1,-1,-1,-1,-1,-1,-1,-1,-1,-1,-1,-1,-1,-1,-1,-1,-1,-1,-1,-1,-1,-1,-1,-1,-1,-1,-1,-1,-1,-1,-1,-1,-1,-1,-1,-1,-1,-1,-1,-1,-1,-1,-1,-1,-1,-1,-1,-1],"loss_changes":[2.0205067E1,1.1953626E1,1.41710005E1,5.719156E0,1.1198202E1,8.642866E0,1.2341499E1,2.061963E0,6.703807E0,1.2201714E1,4.2241516E0,7.2109737E0,6.306513E0,1.0791559E1,8.390771E0,0E0,0E0,6.817919E0,8.8301525E0,9.882751E0,1.1849668E1,6.4558105E0,4.5912714E0,6.0390377E0,6.3619986E0,4.1125083E0,5.736429E0,9.023271E0,9.10467E0,6.98164E0,7.5446067E0,3.5998614E0,2.0624008E0,7.4342012E0,6.971945E0,9.915635E0,7.4297523E0,4.984976E0,9.900984E0,5.4403095E0,7.4574275E0,7.76202E0,3.3885393E0,7.877033E0,9.412704E0,6.4643006E0,1.6653285E0,6.919955E0,1.9412909E0,4.56266E0,0E0,6.6666856E0,7.6221237E0,4.906513E0,8.520933E0,7.655594E0,6.101116E0,9.533246E0,1.2035749E1,0E0,0E0,0E0,0E0,0E0,0E0,0E0,0E0,0E0,0E0,0E0,0E0,0E0,0E0,0E0,0E0,0E0,0E0,0E0,0E0,0E0,0E0,0E0,0E0,0E0,0E0,0E0,0E0,0E0,0E0,0E0,0E0,0E0,0E0,0E0,0E0,0E0,0E0,0E0,0E0,0E0,0E0,0E0,0E0,0E0,0E0,0E0,0E0,0E0,0E0,0E0,0E0,0E0,0E0],"parents":[2147483647,0,0,1,1,2,2,3,3,4,4,5,5,6,6,7,7,8,8,9,9,10,10,11,11,12,12,13,13,14,14,17,17,18,18,19,19,20,20,21,21,22,22,23,23,24,24,25,25,26,26,27,27,28,28,29,29,30,30,31,31,32,32,33,33,34,34,35,35,36,36,37,37,38,38,39,39,40,40,41,41,42,42,43,43,44,44,45,45,46,46,47,47,48,48,49,49,51,51,52,52,53,53,54,54,55,55,56,56,57,57,58,58],"right_children":[2,4,6,8,10,12,14,16,18,20,22,24,26,28,30,-1,-1,32,34,36,38,40,42,44,46,48,50,52,54,56,58,60,62,64,66,68,70,72,74,76,78,80,82,84,86,88,90,92,94,96,-1,98,100,102,104,106,108,110,112,-1,-1,-1,-1,-1,-1,-1,-1,-1,-1,-1,-1,-1,-1,-1,-1,-1,-1,-1,-1,-1,-1,-1,-1,-1,-1,-1,-1,-1,-1,-1,-1,-1,-1,-1,-1,-1,-1,-1,-1,-1,-1,-1,-1,-1,-1,-1,-1,-1,-1,-1,-1,-1,-1],"split_conditions":[5.54176E-1,2.2801805E-1,-1.1462881E1,3.6889187E8,1.098027E0,3.1989277E1,1.0699553E0,3.8214283E1,-3.481801E1,5.0823754E-1,4.902932E-1,2.6959475E1,1.0709318E3,1.9515147E0,1.07391304E2,2.3984456E-2,1.6642827E-1,-2.1737984E-1,-7.111352E-1,-1.9965883E0,4.6482086E1,3.801361E1,2.535489E1,2.6766357E2,-7.9920845E1,1.1817644E0,2.2817261E0,-3.4517286E0,-4.5956244E0,5.619988E-1,9.174295E1,-1.0717293E0,8.5017E-1,8.349006E1,4.265504E1,2.4459446E9,3.6889187E8,4.2208317E8,9.090065E1,1.1757122E1,8.426381E1,7.3223033E0,-1.1426432E-1,1.1062555E10,-1.8307518E2,-1.24813595E1,-6.425104E1,9.038511E2,1.9689183E0,-1.5486007E0,-4.4899102E-2,-1.774765E0,1.2001233E0,8.541441E0,-2.1167253E2,1.8098764E2,1.6980139E0,7.967835E1,8.028925E-2,-4.219781E-2,1.0050807E-1,-1.5943883E-2,-1.3937627E-1,8.802923E-2,-6.872492E-2,-7.0937574E-2,1.9902745E-2,-4.148458E-2,3.724773E-2,1.2412459E-2,-2.7390873E-2,9.673902E-2,1.9289179E-2,-2.1791583E-2,7.185503E-2,-3.4894762E-3,3.6320217E-2,-1.8717268E-2,1.0083158E-1,-3.4438334E-2,8.3360635E-2,4.5700204E-2,7.510657E-3,4.782043E-2,-4.809266E-2,4.9121957E-2,-5.1525977E-2,-8.425235E-2,3.5042077E-2,1.1883183E-1,-1.0367922E-2,4.2802382E-2,-1.0794792E-1,1.20864585E-1,1.2180015E-2,1.9254221E-1,3.0092755E-2,-2.6428737E-3,4.2852476E-2,-6.847393E-2,-4.573842E-3,-3.3169683E-2,8.657768E-2,1.067963E-1,1.3860163E-2,9.2549026E-2,-1.0185827E-1,8.8625774E-2,1.1080678E-2,1.4389194E-2,-3.3220973E-2,1.3191216E-1,5.4833386E-3],"split_indices":[22,22,13,20,7,10,7,11,8,28,22,10,5,28,24,0,0,28,26,28,11,15,15,19,24,22,22,28,13,22,11,28,7,11,10,20,20,20,12,8,10,13,28,20,24,13,24,5,22,8,0,26,19,26,8,19,15,12,28,0,0,0,0,0,0,0,0,0,0,0,0,0,0,0,0,0,0,0,0,0,0,0,0,0,0,0,0,0,0,0,0,0,0,0,0,0,0,0,0,0,0,0,0,0,0,0,0,0,0,0,0,0,0],"split_type":[0,0,0,0,0,0,0,0,0,0,0,0,0,0,0,0,0,0,0,0,0,0,0,0,0,0,0,0,0,0,0,0,0,0,0,0,0,0,0,0,0,0,0,0,0,0,0,0,0,0,0,0,0,0,0,0,0,0,0,0,0,0,0,0,0,0,0,0,0,0,0,0,0,0,0,0,0,0,0,0,0,0,0,0,0,0,0,0,0,0,0,0,0,0,0,0,0,0,0,0,0,0,0,0,0,0,0,0,0,0,0,0,0],"sum_hessian":[7.000152E3,1.7657535E3,5.2343984E3,1.0635706E2,1.6593965E3,2.0300728E2,5.031391E3,4.638053E0,1.0171901E2,1.1939828E3,4.6541367E2,1.6793044E2,3.5076836E1,3.2872468E3,1.7441445E3,1.9347163E0,2.7033367E0,1.2198201E1,8.952081E1,8.9813635E2,2.9584644E2,3.3590643E2,1.2950722E2,1.4378024E2,2.4150198E1,2.3761204E1,1.1315633E1,2.725497E3,5.6174963E2,1.4350677E3,3.0907678E2,5.2628446E0,6.935356E0,2.8975538E1,6.054527E1,7.321186E1,8.249245E2,1.233106E2,1.7253584E2,1.4158916E2,1.9431729E2,3.5248543E1,9.425867E1,1.0806483E2,3.571541E1,2.0701462E1,3.4487367E0,1.53431835E1,8.41802E0,1.0126374E1,1.189259E0,1.285234E2,2.5969736E3,5.703635E1,5.0471332E2,1.8173923E1,1.4168938E3,1.909539E2,1.1812289E2,2.6371171E0,2.6257274E0,2.136456E0,4.7989006E0,2.6314116E1,2.6614223E0,9.075244E0,5.1470028E1,2.2148233E1,5.106363E1,4.935636E1,7.755681E2,8.071226E0,1.1523938E2,1.6137129E2,1.1164557E1,8.533305E1,5.62561E1,1.8993503E2,4.3822546E0,2.9374382E1,5.874163E0,5.2168236E1,4.2090435E1,9.949996E1,8.564866E0,1.5628471E1,2.0086937E1,1.5009117E1,5.6923437E0,2.2199838E0,1.2287529E0,1.2396848E1,2.9463353E0,5.94706E0,2.4709597E0,7.422487E0,2.7038877E0,5.9285336E1,6.923807E1,1.780928E1,2.5791643E3,5.4335995E1,2.700352E0,9.09524E0,4.9561807E2,1.671706E1,1.4568629E0,9.242628E0,1.4076512E3,6.1338264E1,1.2961563E2,7.086483E0,1.1103641E2],"tree_param":{"num_deleted":"0","num_feature":"29","num_nodes":"113","size_leaf_vector":"1"}},{"base_weights":[-9.595097E-4,-7.2365396E-2,2.2959357E-2,2.5289547E-1,-8.637422E-2,-2.2253962E-2,6.738502E-2,5.4723936E-1,-2.4008343E-1,-1.7423655E-1,-1.3464658E-2,2.948271E-1,-3.5591986E-2,1.2947996E-1,-4.066175E-3,7.4021703E-1,-1.3313675E-1,-5.531608E-1,4.233145E-1,-2.2688104E-1,2.6250878E-2,1.6599788E-1,-6.2493145E-2,-3.2896033E-1,3.9444858E-1,8.125218E-1,-4.0130448E-2,1.5202148E-1,-3.055862E-1,-1.7288664E-2,6.2208605E-1,1.3239175E-1,9.37051E-1,2.739766E-1,-1.13925874E-1,3.1571788E-1,-7.233669E-1,1.2032778E0,-1.0620578E-1,-2.4574535E-1,4.1159624E-1,1.7632936E-1,-3.9812407E-1,1.2694763E-1,9.789929E-1,-2.798028E-1,1.4481829E-2,1.4611916E-1,-1.095517E0,7.128965E-1,1.4178397E-1,1.4421996E0,1.9082677E-1,-1.7254642E-1,-1.48643935E-2,1.4485587E-1,9.898061E-1,4.7106672E-2,-1.0620537E0,-1.120719E-1,4.2668454E-2,-3.6971623E-1,8.479784E-1,7.102583E-2,-4.908953E-2,1.3432181E-1,5.8223512E-2,1.18167005E-1,-4.4902913E-2,1.0564951E-1,-5.5950314E-2,-1.0075482E-1,-9.202441E-3,2.811848E-2,1.5203224E-1,-7.2599575E-2,9.108609E-2,-3.1153226E-2,-5.896912E-3,1.5550582E-1,-2.6556063E-2,3.1050775E-2,-4.9500432E-2,-5.3621408E-2,8.365356E-2,8.168136E-2,7.6938174E-3,1.7966326E-1,-8.388233E-3,2.2689284E-4,-3.748565E-2,4.6319798E-2,-3.1442046E-3,9.907806E-2,-4.8139483E-2,-7.2260746E-3,-1.3490753E-1,3.4166288E-2,1.4003114E-1,-2.3823125E-2,5.3138465E-2,1.6545461E-1,2.9817343E-2,-7.145293E-2,6.736763E-2,-2.0925786E-2,5.0292313E-2,-5.41602E-3,7.865319E-3,5.8385458E-2,1.3541681E-2,1.4714745E-1,3.4513958E-2,-1.5561479E-2,1.0253135E-1,-5.138554E-2,-1.2531629E-1,-7.5582387E-3,-5.0482374E-2,3.8725782E-2,1.1898058E-3,3.7376467E-2,-1.1262723E-1,1.5058316E-1,5.0573703E-2],"categories":[],"categories_nodes":[],"categories_segments":[],"categories_sizes":[],"default_left":[0,0,0,0,0,0,0,0,0,0,0,0,0,0,0,0,0,0,0,0,0,0,0,0,0,0,0,0,0,0,0,0,0,0,0,0,0,0,0,0,0,0,0,0,0,0,0,0,0,0,0,0,0,0,0,0,0,0,0,0,0,0,0,0,0,0,0,0,0,0,0,0,0,0,0,0,0,0,0,0,0,0,0,0,0,0,0,0,0,0,0,0,0,0,0,0,0,0,0,0,0,0,0,0,0,0,0,0,0,0,0,0,0,0,0,0,0,0,0,0,0,0,0,0,0],"id":8,"left_children":[1,3,5,7,9,11,13,15,17,19,21,23,25,27,29,31,33,35,37,39,41,43,45,47,49,51,53,55,57,59,61,63,65,67,-1,69,71,73,75,77,79,81,83,85,87,89,91,93,95,97,99,101,103,105,107,109,111,113,115,117,119,121,123,-1,-1,-1,-1,-1,-1,-1,-1,-1,-1,-1,-1,-1,-1,-1,-1,-1,-1,-1,-1,-1,-1,-1,-1,-1,-1,-1,-1,-1,-1,-1,-1,-1,-1,-1,-1,-1,-1,-1,-1,-1,-1,-1,-1,-1,-1,-1,-1,-1,-1,-1,-1,-1,-1,-1,-1,-1,-1,-1,-1,-1,-1],"loss_changes":[1.1949693E1,8.021105E0,1.05287075E1,1.0686888E1,1.0784201E1,1.0998968E1,1.1730285E1,6.118948E0,6.0268984E0,8.064604E0,8.116648E0,6.654111E0,9.633223E0,1.3918783E1,1.0196286E1,4.167906E0,4.8093295E0,3.0947323E0,4.0549784E0,7.3860397E0,1.0240665E1,6.1605043E0,1.2120298E1,5.624001E0,7.219737E0,4.940406E0,8.300968E0,7.9340744E0,1.8729025E1,6.857106E0,6.0195713E0,3.9287825E0,3.0994968E0,6.1893597E0,0E0,3.1008375E0,2.8695889E0,7.203121E-1,4.810722E0,7.2079124E0,1.4142378E1,1.0842587E1,7.613778E0,6.4933925E0,7.9059067E0,5.0820084E0,1.1056175E1,5.854263E0,1.4225063E0,9.730459E0,7.8226833E0,1.0775976E0,3.9158847E0,9.964509E0,7.667469E0,5.453966E0,2.98209E0,9.8181925E0,1.6928234E0,6.66139E0,7.834276E0,3.4702282E0,3.9772444E0,0E0,0E0,0E0,0E0,0E0,0E0,0E0,0E0,0E0,0E0,0E0,0E0,0E0,0E0,0E0,0E0,0E0,0E0,0E0,0E0,0E0,0E0,0E0,0E0,0E0,0E0,0E0,0E0,0E0,0E0,0E0,0E0,0E0,0E0,0E0,0E0,0E0,0E0,0E0,0E0,0E0,0E0,0E0,0E0,0E0,0E0,0E0,0E0,0E0,0E0,0E0,0E0,0E0,0E0,0E0,0E0,0E0,0E0,0E0,0E0,0E0,0E0],"parents":[2147483647,0,0,1,1,2,2,3,3,4,4,5,5,6,6,7,7,8,8,9,9,10,10,11,11,12,12,13,13,14,14,15,15,16,16,17,17,18,18,19,19,20,20,21,21,22,22,23,23,24,24,25,25,26,26,27,27,28,28,29,29,30,30,31,31,32,32,33,33,35,35,36,36,37,37,38,38,39,39,40,40,41,41,42,42,43,43,44,44,45,45,46,46,47,47,48,48,49,49,50,50,51,51,52,52,53,53,54,54,55,55,56,56,57,57,58,58,59,59,60,60,61,61,62,62],"right_children":[2,4,6,8,10,12,14,16,18,20,22,24,26,28,30,32,34,36,38,40,42,44,46,48,50,52,54,56,58,60,62,64,66,68,-1,70,72,74,76,78,80,82,84,86,88,90,92,94,96,98,100,102,104,106,108,110,112,114,116,118,120,122,124,-1,-1,-1,-1,-1,-1,-1,-1,-1,-1,-1,-1,-1,-1,-1,-1,-1,-1,-1,-1,-1,-1,-1,-1,-1,-1,-1,-1,-1,-1,-1,-1,-1,-1,-1,-1,-1,-1,-1,-1,-1,-1,-1,-1,-1,-1,-1,-1,-1,-1,-1,-1,-1,-1,-1,-1,-1,-1,-1,-1,-1,-1],"split_conditions":[5.54176E-1,-7.050098E1,1.22808516E-1,3.7155276E3,1.5006944E0,-1.486073E2,3.8599674E1,5.454998E1,1.1036714E0,7.1748793E-1,5.1903253E2,-8.877907E2,-5.148786E0,6.5576774E-1,9.830066E1,-1.917666E2,7.322437E-1,6.1412263E0,-9.8437345E-1,8.6349525E1,6.0307307E0,4.8790402E2,1.3673179E1,2.1686926E1,7.3299084E2,1.6896194E2,3.870524E1,7.4050995E1,9.505392E0,1.010937E0,1.4581768E-1,8.028925E-2,3.0871582E1,3.85616E-1,-1.13925874E-1,5.019971E3,-9.412689E-1,-4.505747E2,-1.2187744E2,1.0541087E0,8.85714E1,1.562E3,6.409898E-1,1.0491267E0,4.107025E0,-4.755599E2,7.868455E-2,-2.467737E3,6.4951494E-2,1.0320142E-1,4.050082E1,1.1425597E-1,9.975891E-1,4.4652412E1,1.6746403E3,1.2402266E-1,2.4508057E1,8.722047E0,1.7049435E1,9.975891E-1,1.3042597E-1,6.490253E1,8.183836E-1,7.102583E-2,-4.908953E-2,1.3432181E-1,5.8223512E-2,1.18167005E-1,-4.4902913E-2,1.0564951E-1,-5.5950314E-2,-1.0075482E-1,-9.202441E-3,2.811848E-2,1.5203224E-1,-7.2599575E-2,9.108609E-2,-3.1153226E-2,-5.896912E-3,1.5550582E-1,-2.6556063E-2,3.1050775E-2,-4.9500432E-2,-5.3621408E-2,8.365356E-2,8.168136E-2,7.6938174E-3,1.7966326E-1,-8.388233E-3,2.2689284E-4,-3.748565E-2,4.6319798E-2,-3.1442046E-3,9.907806E-2,-4.8139483E-2,-7.2260746E-3,-1.3490753E-1,3.4166288E-2,1.4003114E-1,-2.3823125E-2,5.3138465E-2,1.6545461E-1,2.9817343E-2,-7.145293E-2,6.736763E-2,-2.0925786E-2,5.0292313E-2,-5.41602E-3,7.865319E-3,5.8385458E-2,1.3541681E-2,1.4714745E-1,3.4513958E-2,-1.5561479E-2,1.0253135E-1,-5.138554E-2,-1.2531629E-1,-7.5582387E-3,-5.0482374E-2,3.8725782E-2,1.1898058E-3,3.7376467E-2,-1.1262723E-1,1.5058316E-1,5.0573703E-2],"split_indices":[22,8,18,5,8,24,24,10,7,28,2,25,28,18,11,14,7,12,28,11,24,5,8,12,2,25,10,10,11,7,18,28,10,22,0,5,14,14,14,7,11,2,8,9,14,25,18,25,18,18,15,18,7,11,3,18,14,12,12,7,18,10,22,0,0,0,0,0,0,0,0,0,0,0,0,0,0,0,0,0,0,0,0,0,0,0,0,0,0,0,0,0,0,0,0,0,0,0,0,0,0,0,0,0,0,0,0,0,0,0,0,0,0,0,0,0,0,0,0,0,0,0,0,0,0],"split_type":[0,0,0,0,0,0,0,0,0,0,0,0,0,0,0,0,0,0,0,0,0,0,0,0,0,0,0,0,0,0,0,0,0,0,0,0,0,0,0,0,0,0,0,0,0,0,0,0,0,0,0,0,0,0,0,0,0,0,0,0,0,0,0,0,0,0,0,0,0,0,0,0,0,0,0,0,0,0,0,0,0,0,0,0,0,0,0,0,0,0,0,0,0,0,0,0,0,0,0,0,0,0,0,0,0,0,0,0,0,0,0,0,0,0,0,0,0,0,0,0,0,0,0,0,0],"sum_hessian":[6.994548E3,1.7545623E3,5.239986E3,7.1743744E1,1.6828185E3,2.5972183E3,2.6427676E3,4.485313E1,2.6890614E1,7.625229E2,9.2029565E2,1.0398997E2,2.4932283E3,1.4135254E3,1.2292421E3,3.487379E1,9.979338E0,1.8381842E1,8.508771E0,6.038348E2,1.5868811E2,1.9696062E2,7.23335E2,1.4003553E1,8.998641E1,1.2323242E1,2.480905E3,1.3445144E3,6.901105E1,1.2047732E3,2.4468868E1,8.939899E0,2.5933891E1,7.6226344E0,2.3567033E0,2.870979E0,1.5510862E1,2.9261992E0,5.582572E0,5.8710345E2,1.673132E1,1.1766194E2,4.1026176E1,1.8903683E2,7.92378E0,1.8851091E2,5.348241E2,9.145155E0,4.858399E0,3.9004833E1,5.098158E1,5.4666314E0,6.8566113E0,3.9659186E2,2.0843132E3,1.3342751E3,1.0239225E1,4.7706333E1,2.1304714E1,4.6647568E2,7.382975E2,4.421065E0,2.0047804E1,4.5665703E0,4.373329E0,1.0793086E1,1.5140805E1,3.098391E0,4.5242434E0,1.4427412E0,1.4282379E0,1.0285328E1,5.225535E0,1.2314736E0,1.6947255E0,3.6465743E0,1.935998E0,4.336825E2,1.5342094E2,5.7408104E0,1.099051E1,9.851032E1,1.9151623E1,3.7407993E1,3.6181824E0,1.1740927E1,1.7729591E2,4.0883656E0,3.8354144E0,4.775982E1,1.407511E2,4.8811096E1,4.86013E2,3.6513624E0,5.4937925E0,1.2199937E0,3.638405E0,2.629917E1,1.2705663E1,2.6004955E1,2.4976624E1,4.234419E0,1.2322125E0,2.2179937E0,4.638617E0,3.7680298E2,1.9788855E1,1.467919E3,6.163942E2,2.6803923E1,1.3074712E3,5.126431E0,5.1127944E0,4.0213493E1,7.4928393E0,6.4607644E0,1.4843949E1,4.2791196E2,3.8563713E1,5.9572765E1,6.7872473E2,2.4849887E0,1.9360762E0,5.697059E0,1.4350744E1],"tree_param":{"num_deleted":"0","num_feature":"29","num_nodes":"125","size_leaf_vector":"1"}},{"base_weights":[1.6133266E-3,2.3803337E-1,-6.9801114E-3,3.2145217E-1,-1.0635052E-1,-4.9749848E-2,3.3200063E-2,4.4675714E-1,7.86462E-2,1.925747E-1,-8.398909E-1,-7.7483326E-2,4.651213E-2,2.3550461E-1,2.0902999E-2,2.8989708E-1,7.715558E-1,2.1954559E-1,-4.154836E-1,-1.4642861E-2,6.543206E-1,-9.5423E-1,6.056698E-4,-7.0949264E-2,-8.6784595E-1,2.3879217E-2,4.3174046E-1,5.234837E-1,1.266882E-1,-5.819828E-3,1.0261415E-1,9.292915E-1,1.8749546E-1,4.726095E-1,1.4646461E0,-1.9978555E-1,4.917083E-1,-9.317468E-1,3.758183E-1,-2.2096525E-1,7.793797E-1,-2.5132132E-1,1.1310632E0,-1.1107179E0,-4.8368606E-3,-2.1942424E-2,-1.5845084E-1,-2.6388505E-1,-1.1810926E0,1.5151267E-2,1.1256287E0,-6.5816396E-1,6.7399263E-1,7.7395195E-1,-1.0415277E-1,1.7168827E-1,-5.7015103E-1,-2.1571154E-2,1.750561E-1,8.469019E-2,6.801933E-1,1.7826164E-2,1.612489E-1,-1.276694E-2,3.336013E-2,5.8934834E-2,-1.0933985E-1,2.4650013E-2,1.6435497E-1,-2.0145809E-3,-1.2390714E-1,8.887257E-2,2.1349577E-2,-1.1686313E-1,3.9133202E-2,-5.930047E-2,7.4099205E-2,-5.5568185E-2,1.8594874E-2,1.0983943E-1,-1.7091155E-2,5.582419E-2,-1.0497391E-1,1.41816E-1,-1.5842648E-2,-1.24031045E-1,-5.1715556E-3,-8.247114E-3,1.0830818E-2,1.8654276E-2,-2.0109138E-2,-1.05558075E-1,1.2818773E-2,-1.2991087E-1,1.8067785E-3,1.4026895E-2,-6.149282E-3,1.4502288E-1,1.5203078E-2,-1.297547E-1,-7.2750184E-3,-4.6415903E-2,7.870728E-2,1.243523E-2,1.0102606E-1,-1.304944E-1,2.8195906E-2,9.695404E-3,7.2486155E-2,4.499915E-2,-1.2679067E-1,-2.0407441E-4,-1.994324E-2,3.2823276E-2,-4.7210357E-3,1.5410358E-2,-4.699292E-3,9.7229525E-2,-1.9819247E-2],"categories":[],"categories_nodes":[],"categories_segments":[],"categories_sizes":[],"default_left":[0,0,0,0,0,0,0,0,0,0,0,0,0,0,0,0,0,0,0,0,0,0,0,0,0,0,0,0,0,0,0,0,0,0,0,0,0,0,0,0,0,0,0,0,0,0,0,0,0,0,0,0,0,0,0,0,0,0,0,0,0,0,0,0,0,0,0,0,0,0,0,0,0,0,0,0,0,0,0,0,0,0,0,0,0,0,0,0,0,0,0,0,0,0,0,0,0,0,0,0,0,0,0,0,0,0,0,0,0,0,0,0,0,0,0,0,0,0,0],"id":9,"left_children":[1,3,5,7,9,11,13,15,17,19,21,23,25,27,29,31,33,35,37,39,41,43,-1,45,47,49,51,53,55,57,59,61,63,65,67,69,71,73,75,77,79,81,83,85,-1,87,89,91,93,95,97,99,101,103,105,107,109,111,113,115,117,-1,-1,-1,-1,-1,-1,-1,-1,-1,-1,-1,-1,-1,-1,-1,-1,-1,-1,-1,-1,-1,-1,-1,-1,-1,-1,-1,-1,-1,-1,-1,-1,-1,-1,-1,-1,-1,-1,-1,-1,-1,-1,-1,-1,-1,-1,-1,-1,-1,-1,-1,-1,-1,-1,-1,-1,-1,-1],"loss_changes":[1.419504E1,7.0741224E0,1.158782E1,5.974331E0,1.0804277E1,8.723268E0,8.64464E0,6.4031124E0,4.8568153E0,3.3868294E0,1.3830223E0,1.3035182E1,6.3645277E0,6.1738796E0,7.1598673E0,5.6734834E0,7.9598026E0,6.251462E0,6.695751E0,4.323744E0,5.01432E0,1.7252731E0,0E0,1.0786954E1,3.6054459E0,6.633786E0,1.1140732E1,8.615248E0,4.671189E0,7.0456014E0,8.3079815E0,5.9089737E0,3.6451507E0,6.2477164E0,2.2333565E0,4.0696154E0,3.4535432E0,3.4935846E0,2.8612669E0,2.9490724E0,1.8391929E0,3.5569592E0,2.9490309E0,1.3982124E0,0E0,1.2734473E1,1.3324295E1,2.7299232E0,1.9121971E0,6.5987396E0,1.493165E0,2.852684E0,4.695013E0,5.8493614E0,7.956371E0,5.625025E0,7.0325446E0,7.9006834E0,6.760275E0,7.1816177E0,6.3967285E0,0E0,0E0,0E0,0E0,0E0,0E0,0E0,0E0,0E0,0E0,0E0,0E0,0E0,0E0,0E0,0E0,0E0,0E0,0E0,0E0,0E0,0E0,0E0,0E0,0E0,0E0,0E0,0E0,0E0,0E0,0E0,0E0,0E0,0E0,0E0,0E0,0E0,0E0,0E0,0E0,0E0,0E0,0E0,0E0,0E0,0E0,0E0,0E0,0E0,0E0,0E0,0E0,0E0,0E0,0E0,0E0,0E0,0E0],"parents":[2147483647,0,0,1,1,2,2,3,3,4,4,5,5,6,6,7,7,8,8,9,9,10,10,11,11,12,12,13,13,14,14,15,15,16,16,17,17,18,18,19,19,20,20,21,21,23,23,24,24,25,25,26,26,27,27,28,28,29,29,30,30,31,31,32,32,33,33,34,34,35,35,36,36,37,37,38,38,39,39,40,40,41,41,42,42,43,43,45,45,46,46,47,47,48,48,49,49,50,50,51,51,52,52,53,53,54,54,55,55,56,56,57,57,58,58,59,59,60,60],"right_children":[2,4,6,8,10,12,14,16,18,20,22,24,26,28,30,32,34,36,38,40,42,44,-1,46,48,50,52,54,56,58,60,62,64,66,68,70,72,74,76,78,80,82,84,86,-1,88,90,92,94,96,98,100,102,104,106,108,110,112,114,116,118,-1,-1,-1,-1,-1,-1,-1,-1,-1,-1,-1,-1,-1,-1,-1,-1,-1,-1,-1,-1,-1,-1,-1,-1,-1,-1,-1,-1,-1,-1,-1,-1,-1,-1,-1,-1,-1,-1,-1,-1,-1,-1,-1,-1,-1,-1,-1,-1,-1,-1,-1,-1,-1,-1,-1,-1,-1,-1],"split_conditions":[-1.1462881E1,6.5576774E-1,1.0080152E0,1.995564E2,3.4249992E0,3.9242027E1,1.3623218E8,-1.3640884E2,2.0606487E3,1.6444885E0,1.0203239E0,1.1665053E2,3.600693E0,1.0749972E0,1.828375E6,-5.867363E0,2.8208947E-1,3.412463E1,-1.2340643E0,1.7577285E0,7.19659E5,1.1789524E3,6.056698E-4,6.190013E2,2.4600266E1,1.8793802E2,2.4968552E8,3.1067856E3,1.6596324E2,1.5738503E2,1.7634668E2,4.3384296E1,-1.5379016E2,2.8265142E0,4.043908E2,1.815026E1,5.97543E5,1.2058581E0,3.6726144E9,3.677082E9,1.0420873E0,2.4546447E0,-3.5533322E2,2.486917E0,-4.8368606E-3,1.2923728E1,1.7225443E9,1.6790417E2,5.9976426E3,3.8636383E1,6.6089966E2,1.6746888E3,-1.0600028E3,1.9566792E3,1.0452745E0,4.4549043E3,5.4416147E3,1.1275873E2,1.7140166E2,7.2255455E1,1.2202417E0,1.7826164E-2,1.612489E-1,-1.276694E-2,3.336013E-2,5.8934834E-2,-1.0933985E-1,2.4650013E-2,1.6435497E-1,-2.0145809E-3,-1.2390714E-1,8.887257E-2,2.1349577E-2,-1.1686313E-1,3.9133202E-2,-5.930047E-2,7.4099205E-2,-5.5568185E-2,1.8594874E-2,1.0983943E-1,-1.7091155E-2,5.582419E-2,-1.0497391E-1,1.41816E-1,-1.5842648E-2,-1.24031045E-1,-5.1715556E-3,-8.247114E-3,1.0830818E-2,1.8654276E-2,-2.0109138E-2,-1.05558075E-1,1.2818773E-2,-1.2991087E-1,1.8067785E-3,1.4026895E-2,-6.149282E-3,1.4502288E-1,1.5203078E-2,-1.297547E-1,-7.2750184E-3,-4.6415903E-2,7.870728E-2,1.243523E-2,1.0102606E-1,-1.304944E-1,2.8195906E-2,9.695404E-3,7.2486155E-2,4.499915E-2,-1.2679067E-1,-2.0407441E-4,-1.994324E-2,3.2823276E-2,-4.7210357E-3,1.5410358E-2,-4.699292E-3,9.7229525E-2,-1.9819247E-2],"split_indices":[13,18,7,25,11,15,20,25,1,11,7,19,28,7,4,28,18,19,28,28,4,0,0,0,12,8,20,16,15,15,14,15,24,28,0,11,4,7,20,20,7,11,14,28,0,15,20,19,6,11,14,0,25,1,7,16,1,24,8,24,7,0,0,0,0,0,0,0,0,0,0,0,0,0,0,0,0,0,0,0,0,0,0,0,0,0,0,0,0,0,0,0,0,0,0,0,0,0,0,0,0,0,0,0,0,0,0,0,0,0,0,0,0,0,0,0,0,0,0],"split_type":[0,0,0,0,0,0,0,0,0,0,0,0,0,0,0,0,0,0,0,0,0,0,0,0,0,0,0,0,0,0,0,0,0,0,0,0,0,0,0,0,0,0,0,0,0,0,0,0,0,0,0,0,0,0,0,0,0,0,0,0,0,0,0,0,0,0,0,0,0,0,0,0,0,0,0,0,0,0,0,0,0,0,0,0,0,0,0,0,0,0,0,0,0,0,0,0,0,0,0,0,0,0,0,0,0,0,0,0,0,0,0,0,0,0,0,0,0,0,0],"sum_hessian":[6.9850957E3,2.4405412E2,6.741042E3,1.9651872E2,4.7535397E1,3.2651833E3,3.4758584E3,1.290697E2,6.744902E1,3.429664E1,1.323876E1,2.5350266E3,7.301567E2,1.9813295E2,3.2777256E3,8.831224E1,4.0757458E1,5.2915924E1,1.4533099E1,2.4341291E1,9.955346E0,1.154969E1,1.689069E0,2.5153218E3,1.9704834E1,6.9064215E2,3.9514576E1,5.3290554E1,1.4484239E2,2.4706519E3,8.0707355E2,1.1076396E1,7.723585E1,2.9650417E1,1.1107042E1,2.0931667E1,3.1984259E1,8.687616E0,5.845483E0,1.989373E1,4.4475617E0,3.5963647E0,6.358981E0,9.655546E0,1.8941445E0,1.6131172E3,9.022046E2,7.358864E0,1.2345971E1,6.862197E2,4.422413E0,6.8735023E0,3.2641075E1,3.792347E1,1.53670845E1,1.3676413E2,8.078258E0,2.2735442E3,1.9710768E2,7.838937E2,2.3179869E1,5.8769107E0,5.199486E0,2.4504147E1,5.2731697E1,2.8173845E1,1.4765711E0,1.7268479E0,9.380195E0,1.8716005E1,2.2156622E0,1.2274202E1,1.9710056E1,7.4673862E0,1.2202303E0,1.4293783E0,4.4161043E0,1.0714592E1,9.179138E0,3.213076E0,1.2344857E0,1.9350835E0,1.6612813E0,5.1193957E0,1.2395856E0,8.450261E0,1.2052846E0,1.1015726E3,5.1154462E2,9.88731E1,8.033315E2,1.8768046E0,5.482059E0,1.1163919E1,1.1820515E0,2.6036182E2,4.258579E2,2.949489E0,1.4729235E0,2.7038846E0,4.169617E0,2.6693523E0,2.9971724E1,1.0522878E1,2.740059E1,3.1599796E0,1.2207105E1,1.21521706E2,1.5242431E1,3.4253569E0,4.6529007E0,2.0495056E3,2.240386E2,1.1640768E2,8.07E1,5.132021E2,2.706916E2,1.7314968E1,5.8649006E0],"tree_param":{"num_deleted":"0","num_feature":"29","num_nodes":"119","size_leaf_vector":"1"}},{"base_weights":[-3.6296363E-3,-8.644697E-2,2.5063923E-2,2.672309E-1,-1.0533501E-1,-9.570589E-2,4.431717E-2,5.056449E-1,-9.891909E-2,-1.7631073E-1,-2.7658751E-2,-1.7090872E-1,1.3262467E-1,6.445002E-2,-1.0393129E-1,1.0837641E0,1.9639738E-1,4.9049127E-1,-3.6757696E-1,-1.6285543E-1,-8.872909E-1,2.0404865E-1,-5.908815E-2,1.0947138E0,-1.8149938E-1,2.3178436E-2,5.756311E-1,4.140917E-1,5.798585E-2,7.56048E-2,-2.1645178E-1,5.325884E-1,1.6362141E0,3.492125E-1,-1.0990089E-1,-4.6828598E-1,8.174851E-1,-8.6129105E-1,2.3271045E-1,-2.1314448E-1,1.9430067E-2,3.0652804E-2,-1.0660808E0,-4.3343294E-2,8.868462E-1,2.885E-1,-9.3662076E-2,1.401894E-1,2.4850499E-2,-4.279379E-1,-1.373286E-1,-2.510452E-2,1.101107E0,7.467347E-1,-5.749433E-1,5.844498E-1,-1.6048697E-1,2.7732953E-2,1.3371684E-1,5.0070196E-1,-1.3965411E-2,-3.7271664E-1,-6.3871466E-2,-2.773945E-2,9.6828185E-2,4.1641068E-2,1.7706749E-1,4.151161E-3,7.506939E-2,3.2316294E-2,-9.9986166E-2,-4.6813622E-2,1.0672454E-1,9.131349E-3,-1.197532E-1,5.4659765E-2,-8.565285E-2,7.843666E-2,-2.2836681E-2,6.334427E-2,-6.264211E-3,-4.8115212E-2,-1.3543606E-1,3.5008352E-2,-5.3698815E-2,-4.8551403E-2,1.01894535E-1,5.827848E-2,-1.849887E-2,-1.0665293E-2,5.1799595E-2,-1.1144073E-1,-2.3427429E-2,-1.8970583E-2,9.353827E-3,3.5080195E-3,-7.929388E-2,1.4917308E-1,1.7541701E-2,1.07535355E-1,6.6107037E-3,2.5783936E-3,-8.839462E-2,2.0862212E-2,8.064745E-2,5.593704E-2,-6.617587E-2,4.203547E-3,-1.7083704E-2,-8.167095E-3,1.7793994E-2,-4.9168687E-2,6.025782E-2,-4.072941E-2,7.89617E-3,1.9032845E-2,-4.165889E-2,-2.3398815E-2,4.8505954E-2],"categories":[],"categories_nodes":[],"categories_segments":[],"categories_sizes":[],"default_left":[0,0,0,0,0,0,0,0,0,0,0,0,0,0,0,0,0,0,0,0,0,0,0,0,0,0,0,0,0,0,0,0,0,0,0,0,0,0,0,0,0,0,0,0,0,0,0,0,0,0,0,0,0,0,0,0,0,0,0,0,0,0,0,0,0,0,0,0,0,0,0,0,0,0,0,0,0,0,0,0,0,0,0,0,0,0,0,0,0,0,0,0,0,0,0,0,0,0,0,0,0,0,0,0,0,0,0,0,0,0,0,0,0,0,0,0,0,0,0],"id":10,"left_children":[1,3,5,7,9,11,13,15,17,19,21,23,25,27,29,31,33,35,37,39,41,43,45,47,49,51,53,55,57,59,61,63,65,67,-1,69,71,73,75,77,79,-1,81,83,85,87,89,-1,-1,91,93,95,97,99,101,103,105,107,109,111,113,115,117,-1,-1,-1,-1,-1,-1,-1,-1,-1,-1,-1,-1,-1,-1,-1,-1,-1,-1,-1,-1,-1,-1,-1,-1,-1,-1,-1,-1,-1,-1,-1,-1,-1,-1,-1,-1,-1,-1,-1,-1,-1,-1,-1,-1,-1,-1,-1,-1,-1,-1,-1,-1,-1,-1,-1,-1],"loss_changes":[1.656245E1,1.2008746E1,1.2040559E1,8.011735E0,9.385208E0,1.2249864E1,1.3334297E1,9.691838E0,6.008113E0,8.367844E0,5.9429398E0,7.384366E0,8.567919E0,8.863026E0,1.0809867E1,4.940176E0,7.770583E0,4.129752E0,7.862219E0,8.020742E0,3.8063517E0,1.6507801E1,8.654519E0,8.4499645E-1,5.7377205E0,7.468378E0,7.3237867E0,7.064476E0,8.844113E0,7.8730345E0,7.813483E0,4.1634455E0,7.469082E-1,4.185924E0,0E0,1.8693478E0,3.4781651E0,4.7210836E0,4.7262163E0,1.0588051E1,9.614906E0,0E0,1.7768555E0,1.4272627E1,5.2040634E0,9.191979E0,5.2496586E0,0E0,0E0,1.0436203E1,5.4959545E0,6.3964725E0,1.9626946E0,6.845152E0,9.692564E-1,4.433075E0,6.529868E0,7.847868E0,1.0512136E1,3.9339542E0,6.3045516E0,4.0855865E0,1.5756894E1,0E0,0E0,0E0,0E0,0E0,0E0,0E0,0E0,0E0,0E0,0E0,0E0,0E0,0E0,0E0,0E0,0E0,0E0,0E0,0E0,0E0,0E0,0E0,0E0,0E0,0E0,0E0,0E0,0E0,0E0,0E0,0E0,0E0,0E0,0E0,0E0,0E0,0E0,0E0,0E0,0E0,0E0,0E0,0E0,0E0,0E0,0E0,0E0,0E0,0E0,0E0,0E0,0E0,0E0,0E0,0E0],"parents":[2147483647,0,0,1,1,2,2,3,3,4,4,5,5,6,6,7,7,8,8,9,9,10,10,11,11,12,12,13,13,14,14,15,15,16,16,17,17,18,18,19,19,20,20,21,21,22,22,23,23,24,24,25,25,26,26,27,27,28,28,29,29,30,30,31,31,32,32,33,33,35,35,36,36,37,37,38,38,39,39,40,40,42,42,43,43,44,44,45,45,46,46,49,49,50,50,51,51,52,52,53,53,54,54,55,55,56,56,57,57,58,58,59,59,60,60,61,61,62,62],"right_children":[2,4,6,8,10,12,14,16,18,20,22,24,26,28,30,32,34,36,38,40,42,44,46,48,50,52,54,56,58,60,62,64,66,68,-1,70,72,74,76,78,80,-1,82,84,86,88,90,-1,-1,92,94,96,98,100,102,104,106,108,110,112,114,116,118,-1,-1,-1,-1,-1,-1,-1,-1,-1,-1,-1,-1,-1,-1,-1,-1,-1,-1,-1,-1,-1,-1,-1,-1,-1,-1,-1,-1,-1,-1,-1,-1,-1,-1,-1,-1,-1,-1,-1,-1,-1,-1,-1,-1,-1,-1,-1,-1,-1,-1,-1,-1,-1,-1,-1,-1],"split_conditions":[5.578974E-1,2.4267973E8,7.073524E-2,2.3306248E3,2.7588995E0,1.7624712E3,7.630878E1,1.21050425E-1,-2.1149446E1,9.202838E1,7.989667E-2,-3.7758694E1,4.9998984E2,-2.0836897E2,9.2426133E-1,2.0356888E3,1.0588741E2,2.64797E1,2.6724126E3,1.8756554E-1,1.01669E5,2.5466013E1,5.238172E0,3.5191312E2,2.415568E9,1.3001888E2,4.9125094E9,1.5520452E3,1.098027E0,2.328627E9,8.211881E1,5.678377E0,6.1278594E-1,6.2759426E1,-1.0990089E-1,-9.8437345E-1,-1.5722953E3,1.0749972E0,1.5738503E2,1.824907E1,-1.9965883E0,3.0652804E-2,1.3090078E1,4.5865652E-1,-2.1149446E1,5.300271E2,2.5459807E0,1.401894E-1,2.4850499E-2,4.3925602E-2,7.581424E1,8.694377E1,1.8576567E1,7.6857124E1,5.234354E1,1.3698006E0,3.8826534E9,2.9346113E3,-6.7922205E2,6.08162E1,8.0228966E1,2.76451E5,3.7477148E0,-2.773945E-2,9.6828185E-2,4.1641068E-2,1.7706749E-1,4.151161E-3,7.506939E-2,3.2316294E-2,-9.9986166E-2,-4.6813622E-2,1.0672454E-1,9.131349E-3,-1.197532E-1,5.4659765E-2,-8.565285E-2,7.843666E-2,-2.2836681E-2,6.334427E-2,-6.264211E-3,-4.8115212E-2,-1.3543606E-1,3.5008352E-2,-5.3698815E-2,-4.8551403E-2,1.01894535E-1,5.827848E-2,-1.849887E-2,-1.0665293E-2,5.1799595E-2,-1.1144073E-1,-2.3427429E-2,-1.8970583E-2,9.353827E-3,3.5080195E-3,-7.929388E-2,1.4917308E-1,1.7541701E-2,1.07535355E-1,6.6107037E-3,2.5783936E-3,-8.839462E-2,2.0862212E-2,8.064745E-2,5.593704E-2,-6.617587E-2,4.203547E-3,-1.7083704E-2,-8.167095E-3,1.7793994E-2,-4.9168687E-2,6.025782E-2,-4.072941E-2,7.89617E-3,1.9032845E-2,-4.165889E-2,-2.3398815E-2,4.8505954E-2],"split_indices":[22,20,18,21,8,17,10,18,24,11,18,8,25,24,22,6,24,10,6,18,4,8,8,1,20,24,20,0,7,20,10,8,7,10,0,28,25,7,15,10,28,0,15,22,24,1,28,0,0,18,11,11,8,15,15,22,20,21,25,24,11,4,28,0,0,0,0,0,0,0,0,0,0,0,0,0,0,0,0,0,0,0,0,0,0,0,0,0,0,0,0,0,0,0,0,0,0,0,0,0,0,0,0,0,0,0,0,0,0,0,0,0,0,0,0,0,0,0,0],"split_type":[0,0,0,0,0,0,0,0,0,0,0,0,0,0,0,0,0,0,0,0,0,0,0,0,0,0,0,0,0,0,0,0,0,0,0,0,0,0,0,0,0,0,0,0,0,0,0,0,0,0,0,0,0,0,0,0,0,0,0,0,0,0,0,0,0,0,0,0,0,0,0,0,0,0,0,0,0,0,0,0,0,0,0,0,0,0,0,0,0,0,0,0,0,0,0,0,0,0,0,0,0,0,0,0,0,0,0,0,0,0,0,0,0,0,0,0,0,0,0],"sum_hessian":[6.9678667E3,1.792427E3,5.1754395E3,9.020442E1,1.7022225E3,7.110799E2,4.46436E3,5.4400944E1,3.5803474E1,8.888119E2,8.1341064E2,5.350933E2,1.7598656E2,3.9310674E3,5.332924E2,1.8085918E1,3.6315025E1,1.0951404E1,2.4852072E1,8.7350977E2,1.5302117E1,9.64988E1,7.1691187E2,3.5909877E0,5.315023E2,1.4196576E2,3.40208E1,7.021356E1,3.8608538E3,2.055877E2,3.2770474E2,1.0036559E1,8.049358E0,3.3136444E1,3.1785822E0,2.6752424E0,8.276161E0,1.3397954E1,1.1454118E1,6.845001E2,1.890097E2,1.9001236E0,1.3401994E1,7.152155E1,2.4977247E1,6.419405E1,6.527178E2,2.1528218E0,1.4381659E0,7.9464455E1,4.5203787E2,1.3681424E2,5.1515217E0,2.9922039E1,4.0987606E0,5.414331E1,1.607025E1,2.7597566E3,1.1010972E3,3.4980656E1,1.7060704E2,1.6118483E2,1.665199E2,3.6375117E0,6.3990474E0,1.2059641E0,6.8433948E0,1.9383816E1,1.3752628E1,1.2324084E0,1.442834E0,1.2040526E0,7.0721087E0,3.6853664E0,9.712587E0,9.278504E0,2.1756132E0,9.529193E0,6.749709E2,2.1493168E1,1.6751653E2,5.3056693E0,8.096324E0,3.9962734E1,3.155882E1,1.9582168E0,2.301903E1,3.9446354E1,2.4747698E1,6.3995166E2,1.2766135E1,1.6439137E1,6.3025314E1,3.6859277E2,8.34451E1,1.2775482E2,9.059421E0,3.1927576E0,1.9587642E0,1.9788073E1,1.0133966E1,1.703525E0,2.395236E0,2.0827545E1,3.3315765E1,6.5492363E0,9.521014E0,2.575069E3,1.8468764E2,1.8742078E2,9.1367633E2,2.9004738E0,3.208018E1,3.1957775E1,1.3864928E2,1.1410258E1,1.4977457E2,1.2756161E2,3.895829E1],"tree_param":{"num_deleted":"0","num_feature":"29","num_nodes":"119","size_leaf_vector":"1"}},{"base_weights":[1.01538515E-2,7.055533E-3,6.052335E-1,-5.0765324E-2,2.6472943E-2,1.6339174E-1,9.462937E-1,2.0196226E-1,-6.722602E-2,2.8988382E-1,2.1178158E-2,5.579757E-1,-4.6865308E-1,-2.5106892E-2,1.0544579E0,-3.7391968E-2,5.5746317E-1,-2.8952327E-1,-5.07292E-2,5.264631E-1,9.164179E-3,-2.8042856E-1,2.4853928E-2,-2.6008558E-1,8.90941E-1,3.6169935E-2,-8.029088E-1,4.46388E-1,1.3068486E0,1.1086281E-1,-6.736823E-1,-1.17281616E-1,7.552968E-1,7.3221046E-1,-3.2784554E-1,-8.945257E-2,6.195115E-2,6.68633E-2,6.638588E-1,5.9909E-1,-1.4851494E-1,-3.7245175E-1,4.4932303E-1,1.0718158E-1,9.646659E-3,6.2049665E-2,-1.0308446E-1,1.2320368E0,1.0061488E-1,-1.2397003E-1,2.1387078E-2,1.2527555E-1,-4.7231618E-1,1.6167329E-1,7.271402E-1,-7.864407E-3,9.403795E-2,-9.830925E-2,2.4494264E-2,1.16853856E-1,-4.126212E-2,9.4504714E-2,-3.4784358E-2,1.4100413E-1,-8.853397E-3,1.7493917E-2,-3.9040495E-2,-1.4252736E-2,5.408553E-3,2.8505368E-2,-8.860371E-3,-7.0171244E-2,4.187353E-2,9.236089E-2,2.2111975E-2,1.1346809E-1,-4.4888355E-2,-1.1387449E-1,-2.6758206E-3,8.910365E-2,-4.2409435E-2,8.582309E-2,-4.4810522E-2,7.7101677E-3,5.1404335E-2,-3.5618246E-2,1.9511543E-3,1.4264539E-1,3.1564783E-2,7.686601E-2,-6.094792E-2,-1.0788973E-1,1.9560648E-2,-4.7308113E-2,1.2947118E-1],"categories":[],"categories_nodes":[],"categories_segments":[],"categories_sizes":[],"default_left":[0,0,0,0,0,0,0,0,0,0,0,0,0,0,0,0,0,0,0,0,0,0,0,0,0,0,0,0,0,0,0,0,0,0,0,0,0,0,0,0,0,0,0,0,0,0,0,0,0,0,0,0,0,0,0,0,0,0,0,0,0,0,0,0,0,0,0,0,0,0,0,0,0,0,0,0,0,0,0,0,0,0,0,0,0,0,0,0,0,0,0,0,0,0,0],"id":11,"left_children":[1,3,5,7,9,11,13,15,17,19,21,23,25,-1,27,29,31,33,35,37,39,41,43,45,47,-1,49,51,53,55,57,59,61,63,65,67,69,71,73,75,77,79,81,83,85,-1,-1,87,89,-1,-1,-1,91,-1,93,-1,-1,-1,-1,-1,-1,-1,-1,-1,-1,-1,-1,-1,-1,-1,-1,-1,-1,-1,-1,-1,-1,-1,-1,-1,-1,-1,-1,-1,-1,-1,-1,-1,-1,-1,-1,-1,-1,-1,-1],"loss_changes":[1.2787022E1,7.7512684E0,5.258708E0,7.2340736E0,7.2017975E0,4.46575E0,2.8633537E0,9.073183E0,5.963878E0,6.753105E0,5.624789E0,3.1830323E0,2.2395883E0,0E0,2.2703743E0,6.1606197E0,5.811084E0,4.641629E0,6.632912E0,3.4414644E0,4.5124736E0,4.2701125E0,6.2679048E0,3.292307E0,2.0128856E0,0E0,2.626858E0,5.757352E0,1.0917892E0,8.434222E0,3.7461524E0,4.501872E0,7.295822E0,2.5577393E0,3.4980497E0,8.62249E0,1.3093459E1,4.030374E0,4.670187E0,6.2504725E0,4.5904174E0,3.953576E0,3.0614743E0,9.513733E0,1.5263834E1,0E0,0E0,5.203762E-1,2.1186538E0,0E0,0E0,0E0,1.825819E0,0E0,4.8455906E0,0E0,0E0,0E0,0E0,0E0,0E0,0E0,0E0,0E0,0E0,0E0,0E0,0E0,0E0,0E0,0E0,0E0,0E0,0E0,0E0,0E0,0E0,0E0,0E0,0E0,0E0,0E0,0E0,0E0,0E0,0E0,0E0,0E0,0E0,0E0,0E0,0E0,0E0,0E0,0E0],"parents":[2147483647,0,0,1,1,2,2,3,3,4,4,5,5,6,6,7,7,8,8,9,9,10,10,11,11,12,12,14,14,15,15,16,16,17,17,18,18,19,19,20,20,21,21,22,22,23,23,24,24,26,26,27,27,28,28,29,29,30,30,31,31,32,32,33,33,34,34,35,35,36,36,37,37,38,38,39,39,40,40,41,41,42,42,43,43,44,44,47,47,48,48,52,52,54,54],"right_children":[2,4,6,8,10,12,14,16,18,20,22,24,26,-1,28,30,32,34,36,38,40,42,44,46,48,-1,50,52,54,56,58,60,62,64,66,68,70,72,74,76,78,80,82,84,86,-1,-1,88,90,-1,-1,-1,92,-1,94,-1,-1,-1,-1,-1,-1,-1,-1,-1,-1,-1,-1,-1,-1,-1,-1,-1,-1,-1,-1,-1,-1,-1,-1,-1,-1,-1,-1,-1,-1,-1,-1,-1,-1,-1,-1,-1,-1,-1,-1],"split_conditions":[9.830066E1,5.54176E-1,1.0429625E1,2.2801805E-1,-4.7390265E0,9.637939E-1,8.307555E-1,2.0703282E2,-1.8641929E3,1.8238227E0,4.2775135E1,-2.3985536E0,6.14092E1,-2.5106892E-2,3.0985508E1,5.521927E0,2.40591E9,-9.757642E1,5.0823754E-1,3.968255E0,-2.0836897E2,6.409898E-1,3.1567844E2,-5.3240104E0,4.878112E9,3.6169935E-2,1.3485876E3,6.343048E2,1.0639035E0,1.1537434E0,1.323268E3,1.4941602E8,5.551119E1,8.65858E5,2.945071E-1,1.1006025E0,4.6482086E1,6.614598E2,-2.7626019E0,7.076446E0,-1.8307518E2,-3.5804067E0,2.1958364E1,3.3182922E2,9.005153E0,6.2049665E-2,-1.0308446E-1,9.334351E0,8.054995E1,-1.2397003E-1,2.1387078E-2,1.2527555E-1,2.4788082E1,1.6167329E-1,1.4723854E0,-7.864407E-3,9.403795E-2,-9.830925E-2,2.4494264E-2,1.16853856E-1,-4.126212E-2,9.4504714E-2,-3.4784358E-2,1.4100413E-1,-8.853397E-3,1.7493917E-2,-3.9040495E-2,-1.4252736E-2,5.408553E-3,2.8505368E-2,-8.860371E-3,-7.0171244E-2,4.187353E-2,9.236089E-2,2.2111975E-2,1.1346809E-1,-4.4888355E-2,-1.1387449E-1,-2.6758206E-3,8.910365E-2,-4.2409435E-2,8.582309E-2,-4.4810522E-2,7.7101677E-3,5.1404335E-2,-3.5618246E-2,1.9511543E-3,1.4264539E-1,3.1564783E-2,7.686601E-2,-6.094792E-2,-1.0788973E-1,1.9560648E-2,-4.7308113E-2,1.2947118E-1],"split_indices":[11,22,13,22,28,22,28,25,25,22,17,9,10,0,15,13,20,24,28,11,24,8,2,8,20,0,6,2,22,7,17,20,9,4,22,7,11,16,13,11,24,28,13,5,15,0,0,13,24,0,0,0,15,0,22,0,0,0,0,0,0,0,0,0,0,0,0,0,0,0,0,0,0,0,0,0,0,0,0,0,0,0,0,0,0,0,0,0,0,0,0,0,0,0,0],"split_type":[0,0,0,0,0,0,0,0,0,0,0,0,0,0,0,0,0,0,0,0,0,0,0,0,0,0,0,0,0,0,0,0,0,0,0,0,0,0,0,0,0,0,0,0,0,0,0,0,0,0,0,0,0,0,0,0,0,0,0,0,0,0,0,0,0,0,0,0,0,0,0,0,0,0,0,0,0,0,0,0,0,0,0,0,0,0,0,0,0,0,0,0,0,0,0],"sum_hessian":[6.9366646E3,6.901742E3,3.4922485E1,1.7346661E3,5.167076E3,1.5857825E1,1.906466E1,1.0538464E2,1.6292815E3,1.0075697E2,5.066319E3,9.835031E0,6.0227947E0,1.4700646E0,1.7594593E1,6.3515373E1,4.186927E1,1.11413734E2,1.5178677E3,5.420216E1,4.655481E1,6.0094757E1,5.006224E3,2.9083638E0,6.926667E0,1.7050455E0,4.3177495E0,5.9729533E0,1.162164E1,5.218265E1,1.133272E1,9.585044E0,3.2284225E1,3.373161E0,1.0804057E2,1.1298077E3,3.8806E2,1.2816516E1,4.1385643E1,9.228551E0,3.732626E1,5.380007E1,6.2946825E0,7.796082E2,4.226616E3,1.4484649E0,1.4598988E0,4.4480443E0,2.4786227E0,2.8669245E0,1.4508249E0,2.9873114E0,2.9856422E0,6.4075837E0,5.2140565E0,4.321515E1,8.9675045E0,8.424883E0,2.9078372E0,1.2381064E0,8.346937E0,2.7668331E1,4.6158957E0,1.4541854E0,1.9189757E0,1.1756687E1,9.628389E1,8.2482623E2,3.049815E2,1.5599803E2,2.3206195E2,3.7127416E0,9.103775E0,2.5398499E1,1.5987145E1,6.0525293E0,3.1760223E0,3.1724617E0,3.4153797E1,1.4743634E0,5.232571E1,4.3543334E0,1.9403489E0,7.2704614E2,5.2562107E1,1.1005968E2,4.116556E3,3.2103486E0,1.2376959E0,1.234628E0,1.2439947E0,1.2422118E0,1.7434304E0,1.7274878E0,3.4865685E0],"tree_param":{"num_deleted":"0","num_feature":"29","num_nodes":"95","size_leaf_vector":"1"}},{"base_weights":[-1.5597754E-3,-4.0185475E-3,5.0000185E-1,6.595103E-3,-1.0709206E-1,2.0367786E-1,1.0083634E0,-1.5647473E-2,7.383665E-2,-2.2251822E-1,4.690862E-2,5.305124E-1,-3.946966E-1,1.2822472E0,4.9550784E-1,-2.1245742E-2,3.1792372E-1,2.5761223E-1,4.2347632E-2,-2.6473433E-1,2.7777764E-1,-4.5484307E-1,9.9614196E-2,1.508067E-1,1.095064E0,5.4346718E-2,-6.644822E-1,1.5993929E-2,1.4801882E-1,-4.6338223E-2,9.974199E-1,8.3996814E-1,-2.3136023E-2,6.740905E-1,7.762459E-2,3.6547884E-1,-8.008301E-2,4.2267446E-3,2.3544332E-1,8.941804E-2,-3.1760818E-1,4.826479E-1,-9.178851E-1,-2.3070766E-2,-9.002107E-1,3.1519628E-1,-5.405152E-2,-3.2238096E-1,1.0688456E0,1.382188E-1,3.500054E-2,-1.2580906E-1,-1.4745411E-1,1.2985747E-1,1.5225286E-2,3.83987E-2,1.300659E-1,-1.8839723E-3,-3.2055933E-2,3.551952E-2,1.4610106E-1,-4.7533168E-3,1.0204557E-1,2.1650461E-2,6.857643E-2,2.2647452E-2,-4.9076095E-2,-7.4008624E-3,7.4400357E-3,6.2405206E-2,1.088357E-2,3.761192E-2,-6.474218E-2,-3.5687644E-2,2.2034928E-2,1.146206E-1,3.0288463E-2,-2.0337743E-3,-1.227626E-1,-4.4334356E-2,7.285712E-2,-2.3218434E-2,-1.18258856E-1,1.9211685E-2,9.497035E-2,-9.179831E-2,6.2946253E-4,6.4529926E-2,-8.417502E-2,1.2757803E-1,3.5652388E-2,6.5645404E-2,-9.0386026E-2],"categories":[],"categories_nodes":[],"categories_segments":[],"categories_sizes":[],"default_left":[0,0,0,0,0,0,0,0,0,0,0,0,0,0,0,0,0,0,0,0,0,0,0,0,0,0,0,0,0,0,0,0,0,0,0,0,0,0,0,0,0,0,0,0,0,0,0,0,0,0,0,0,0,0,0,0,0,0,0,0,0,0,0,0,0,0,0,0,0,0,0,0,0,0,0,0,0,0,0,0,0,0,0,0,0,0,0,0,0,0,0,0,0],"id":12,"left_children":[1,3,5,7,9,11,13,15,17,19,21,23,25,27,29,31,33,35,37,39,41,43,45,47,49,-1,51,-1,-1,-1,53,55,57,59,61,63,65,67,69,71,73,75,77,79,81,83,85,87,89,-1,-1,-1,91,-1,-1,-1,-1,-1,-1,-1,-1,-1,-1,-1,-1,-1,-1,-1,-1,-1,-1,-1,-1,-1,-1,-1,-1,-1,-1,-1,-1,-1,-1,-1,-1,-1,-1,-1,-1,-1,-1,-1,-1],"loss_changes":[8.622042E0,7.611262E0,4.9324236E0,9.435848E0,1.1556227E1,4.6683745E0,1.0932512E0,8.860248E0,9.063939E0,7.9184303E0,7.425923E0,3.0872645E0,2.5447981E0,1.4055138E0,3.3084927E0,7.611657E0,6.65057E0,8.377962E0,9.862511E0,6.452015E0,7.6426344E0,5.1154113E0,8.410978E0,4.788956E0,7.872429E-1,0E0,2.0091002E0,0E0,0E0,0E0,8.711133E-1,1.6518073E0,5.941533E0,7.3661537E0,5.700305E0,8.148523E0,7.1999345E0,6.1547446E0,1.0800751E1,9.8222475E0,6.3885746E0,2.72408E0,1.2661014E0,4.931302E0,2.2006044E0,8.063862E0,7.762864E0,4.3223357E0,9.2244625E-2,0E0,0E0,0E0,3.6061385E0,0E0,0E0,0E0,0E0,0E0,0E0,0E0,0E0,0E0,0E0,0E0,0E0,0E0,0E0,0E0,0E0,0E0,0E0,0E0,0E0,0E0,0E0,0E0,0E0,0E0,0E0,0E0,0E0,0E0,0E0,0E0,0E0,0E0,0E0,0E0,0E0,0E0,0E0,0E0,0E0],"parents":[2147483647,0,0,1,1,2,2,3,3,4,4,5,5,6,6,7,7,8,8,9,9,10,10,11,11,12,12,13,13,14,14,15,15,16,16,17,17,18,18,19,19,20,20,21,21,22,22,23,23,24,24,26,26,30,30,31,31,32,32,33,33,34,34,35,35,36,36,37,37,38,38,39,39,40,40,41,41,42,42,43,43,44,44,45,45,46,46,47,47,48,48,52,52],"right_children":[2,4,6,8,10,12,14,16,18,20,22,24,26,28,30,32,34,36,38,40,42,44,46,48,50,-1,52,-1,-1,-1,54,56,58,60,62,64,66,68,70,72,74,76,78,80,82,84,86,88,90,-1,-1,-1,92,-1,-1,-1,-1,-1,-1,-1,-1,-1,-1,-1,-1,-1,-1,-1,-1,-1,-1,-1,-1,-1,-1,-1,-1,-1,-1,-1,-1,-1,-1,-1,-1,-1,-1,-1,-1,-1,-1,-1,-1],"split_conditions":[9.830066E1,1.20404854E2,2.4145103E-1,1.828375E6,1.391427E0,9.453497E1,1.0238136E0,1.3351759E1,-9.578874E1,9.453497E1,2.733143E2,1.0429625E1,5.1677793E-1,1.4101387E1,8.76669E5,-7.193066E0,1.6185242E2,2.1568453E0,3.0396172E1,-1.0600028E3,3.57784E6,9.289246E1,5.0689692E0,3.0349722E1,1.18577E6,5.4346718E-2,7.916704E2,1.5993929E-2,1.4801882E-1,-4.6338223E-2,7.2893866E2,-1.23053986E2,5.2016395E-1,8.824055E2,5.902868E1,1.3813465E0,1.7704884E2,7.557687E-2,3.476929E1,6.236105E-1,8.635721E1,6.13042E1,1.0078259E0,1.7549399E-1,8.732212E1,6.662197E6,1.5878307E1,9.549195E-1,8.47389E1,1.382188E-1,3.500054E-2,-1.2580906E-1,5.614221E1,1.2985747E-1,1.5225286E-2,3.83987E-2,1.300659E-1,-1.8839723E-3,-3.2055933E-2,3.551952E-2,1.4610106E-1,-4.7533168E-3,1.0204557E-1,2.1650461E-2,6.857643E-2,2.2647452E-2,-4.9076095E-2,-7.4008624E-3,7.4400357E-3,6.2405206E-2,1.088357E-2,3.761192E-2,-6.474218E-2,-3.5687644E-2,2.2034928E-2,1.146206E-1,3.0288463E-2,-2.0337743E-3,-1.227626E-1,-4.4334356E-2,7.285712E-2,-2.3218434E-2,-1.18258856E-1,1.9211685E-2,9.497035E-2,-9.179831E-2,6.2946253E-4,6.4529926E-2,-8.417502E-2,1.2757803E-1,3.5652388E-2,6.5645404E-2,-9.0386026E-2],"split_indices":[11,24,18,4,28,12,22,13,24,12,6,13,22,8,4,28,14,22,15,25,4,11,26,9,4,0,16,0,0,0,6,24,18,21,26,22,25,9,15,28,9,14,26,18,12,4,15,7,24,0,0,0,8,0,0,0,0,0,0,0,0,0,0,0,0,0,0,0,0,0,0,0,0,0,0,0,0,0,0,0,0,0,0,0,0,0,0,0,0,0,0,0,0],"split_type":[0,0,0,0,0,0,0,0,0,0,0,0,0,0,0,0,0,0,0,0,0,0,0,0,0,0,0,0,0,0,0,0,0,0,0,0,0,0,0,0,0,0,0,0,0,0,0,0,0,0,0,0,0,0,0,0,0,0,0,0,0,0,0,0,0,0,0,0,0,0,0,0,0,0,0,0,0,0,0,0,0,0,0,0,0,0,0,0,0,0,0,0,0],"sum_hessian":[6.988826E3,6.9557197E3,3.3106575E1,6.3071934E3,6.485262E2,2.1800005E1,1.130657E1,4.740026E3,1.5671678E3,3.7043436E2,2.7809186E2,1.4172397E1,7.6276093E0,6.3925176E0,4.9140525E0,4.6627085E3,7.731715E1,2.2819568E2,1.3389722E3,3.4204285E2,2.839151E1,2.570956E1,2.523823E2,9.2309675E0,4.9414296E0,1.4769968E0,6.1506124E0,1.2294818E0,5.163036E0,1.7147784E0,3.1992738E0,9.240781E0,4.653468E3,3.0421606E1,4.6895542E1,1.7288914E2,5.5306534E1,1.119068E3,2.1990414E2,4.4342545E1,2.977003E2,2.4747496E1,3.6440136E0,1.3588076E1,1.2121484E1,1.0459364E2,1.4778865E2,6.5194592E0,2.7115076E0,2.9495995E0,1.99183E0,2.1960168E0,3.9545953E0,1.9632475E0,1.2360263E0,5.565591E0,3.6751895E0,4.5882534E3,6.52143E1,2.2681442E1,7.740164E0,4.223815E1,4.6573925E0,1.19146545E2,5.37426E1,3.192449E1,2.3382044E1,5.2911365E2,5.899544E2,5.3073036E1,1.668311E2,3.2274303E1,1.206824E1,2.7776166E2,1.9938625E1,4.1292057E0,2.061829E1,1.20831E0,2.4357035E0,8.978185E0,4.609892E0,4.1428704E0,7.9786134E0,8.869223E1,1.590142E1,8.72123E0,1.3906741E2,2.1923122E0,4.327147E0,1.4881672E0,1.2233405E0,1.98116E0,1.9734353E0],"tree_param":{"num_deleted":"0","num_feature":"29","num_nodes":"93","size_leaf_vector":"1"}},{"base_weights":[6.076648E-4,-2.0889588E-2,6.069082E-2,-5.698463E-2,2.3684701E-2,-3.0432975E-1,7.111177E-2,-6.9469474E-2,5.1782346E-1,3.8056946E-1,1.267076E-2,7.2442263E-1,-4.722097E-1,2.5897947E-1,4.8741E-2,5.0868776E-2,-9.6237674E-2,5.8439505E-1,-1.1131573E-1,1.5333657E0,2.4315435E-1,3.8108355E-1,1.9070314E-3,1.2980614E0,-3.4698033E-1,5.024204E-1,-6.2745345E-1,4.537103E-1,1.0664058E-1,7.404549E-2,-8.8185586E-2,1.0148095E-1,-3.2284272E-1,-9.150439E-2,-7.399392E-1,7.919518E-1,1.1031387E-1,-8.153594E-3,1.8820795E-1,4.4952597E-2,7.817126E-1,6.249522E-1,1.0472045E-2,7.2664654E-1,-1.8125874E-3,5.6672163E-2,1.5638062E-1,-9.2365675E-2,3.8143765E-2,1.3379665E-1,-4.0383264E-1,-8.1883335E-1,7.2088584E-2,6.407146E-2,7.095207E-1,-8.024607E-2,4.696698E-1,5.1258504E-2,3.4653538E-1,6.549213E-1,-1.3098684E-1,5.3493422E-3,4.727373E-2,6.8497054E-2,-4.84683E-2,-1.7436353E-2,-6.1345333E-3,6.760236E-2,-1.0192797E-1,4.6465166E-2,1.15775146E-1,1.5670256E-1,-1.7475322E-2,2.379079E-2,-7.490241E-2,1.1560225E-1,1.4032361E-2,1.3726358E-2,1.4301431E-1,7.118611E-2,-5.7547517E-2,1.4030253E-2,1.2576549E-1,-4.9836792E-2,4.280558E-4,-1.17998116E-1,7.24089E-2,-4.9690347E-2,-1.2647136E-1,1.4086133E-1,-3.576908E-2,-4.8883405E-2,4.4848297E-2,1.09974835E-2,8.570928E-2,1.01818815E-2,-5.4353576E-2,8.316813E-2,-5.652274E-2,5.8090365E-3,-4.969349E-2,-2.9658778E-2,4.4624504E-2,8.9535415E-2,-5.2689947E-2,-8.666668E-2,-9.823728E-3],"categories":[],"categories_nodes":[],"categories_segments":[],"categories_sizes":[],"default_left":[0,0,0,0,0,0,0,0,0,0,0,0,0,0,0,0,0,0,0,0,0,0,0,0,0,0,0,0,0,0,0,0,0,0,0,0,0,0,0,0,0,0,0,0,0,0,0,0,0,0,0,0,0,0,0,0,0,0,0,0,0,0,0,0,0,0,0,0,0,0,0,0,0,0,0,0,0,0,0,0,0,0,0,0,0,0,0,0,0,0,0,0,0,0,0,0,0,0,0,0,0,0,0,0,0,0,0],"id":13,"left_children":[1,3,5,7,9,11,13,15,17,19,21,23,25,27,29,31,33,35,-1,37,39,41,43,45,47,49,51,53,55,57,59,61,63,65,67,69,71,-1,-1,73,75,77,79,81,83,-1,-1,-1,-1,-1,85,87,89,91,93,95,97,99,101,103,105,-1,-1,-1,-1,-1,-1,-1,-1,-1,-1,-1,-1,-1,-1,-1,-1,-1,-1,-1,-1,-1,-1,-1,-1,-1,-1,-1,-1,-1,-1,-1,-1,-1,-1,-1,-1,-1,-1,-1,-1,-1,-1,-1,-1,-1,-1],"loss_changes":[9.000793E0,8.258797E0,7.0066385E0,2.0389545E1,9.024542E0,9.177498E0,7.4940357E0,8.949551E0,7.209736E0,1.0515715E1,8.839943E0,5.1040325E0,7.0614395E0,5.582776E0,5.5409737E0,9.602093E0,6.8542004E0,5.688387E0,0E0,4.169937E0,6.6473627E0,5.712842E0,5.8433347E0,1.1318016E-1,1.7928879E0,5.599654E0,5.26758E0,8.22867E0,7.352251E0,8.356659E0,8.024587E0,7.9266396E0,1.0213708E1,5.6279488E0,7.192588E0,4.330408E0,8.17834E0,0E0,0E0,7.351588E0,3.8664083E0,1.4784428E1,1.1149076E1,3.2696424E0,6.5284667E0,0E0,0E0,0E0,0E0,0E0,4.332764E0,3.7680855E0,5.8322773E0,7.445582E0,4.3306828E0,6.1307178E0,1.4251581E1,4.6946077E0,6.7955265E0,4.3816977E0,5.6211224E0,0E0,0E0,0E0,0E0,0E0,0E0,0E0,0E0,0E0,0E0,0E0,0E0,0E0,0E0,0E0,0E0,0E0,0E0,0E0,0E0,0E0,0E0,0E0,0E0,0E0,0E0,0E0,0E0,0E0,0E0,0E0,0E0,0E0,0E0,0E0,0E0,0E0,0E0,0E0,0E0,0E0,0E0,0E0,0E0,0E0,0E0],"parents":[2147483647,0,0,1,1,2,2,3,3,4,4,5,5,6,6,7,7,8,8,9,9,10,10,11,11,12,12,13,13,14,14,15,15,16,16,17,17,19,19,20,20,21,21,22,22,23,23,24,24,25,25,26,26,27,27,28,28,29,29,30,30,31,31,32,32,33,33,34,34,35,35,36,36,39,39,40,40,41,41,42,42,43,43,44,44,50,50,51,51,52,52,53,53,54,54,55,55,56,56,57,57,58,58,59,59,60,60],"right_children":[2,4,6,8,10,12,14,16,18,20,22,24,26,28,30,32,34,36,-1,38,40,42,44,46,48,50,52,54,56,58,60,62,64,66,68,70,72,-1,-1,74,76,78,80,82,84,-1,-1,-1,-1,-1,86,88,90,92,94,96,98,100,102,104,106,-1,-1,-1,-1,-1,-1,-1,-1,-1,-1,-1,-1,-1,-1,-1,-1,-1,-1,-1,-1,-1,-1,-1,-1,-1,-1,-1,-1,-1,-1,-1,-1,-1,-1,-1,-1,-1,-1,-1,-1,-1,-1,-1,-1,-1,-1],"split_conditions":[1.1534746E0,4.0996757E0,4.4281232E-1,3.267445E0,2.418861E-1,2.6408494E-1,7.842432E-1,3.0515968E1,4.803773E3,8.0993205E-2,7.580266E0,8.4131256E1,-2.5361087E0,5.0823754E-1,7.470116E1,-9.933614E-1,5.2016395E-1,9.864832E-1,-1.1131573E-1,4.0261036E1,1.7873627E3,5.8357105E1,-1.4171619E1,6.9322966E-2,2.4341788E0,3.7348687E9,1.0260122E3,-1.9555017E0,1.8214056E-1,9.289246E1,1.3050257E8,1.2298446E0,1.824907E1,3.2162775E9,6.9276637E-1,4.0776115E1,5.878659E0,-8.153594E-3,1.8820795E-1,1.4725751E3,2.8190564E3,4.5108116E1,1.9639814E-1,1.1006025E0,-1.0238681E1,5.6672163E-2,1.5638062E-1,-9.2365675E-2,3.8143765E-2,1.3379665E-1,1.5534662E-1,1.6351734E-1,1.1552029E3,3.933282E9,1.3403992E2,6.937587E0,6.629804E1,1.331156E0,3.672086E2,1.5503918E2,-5.2488465E0,5.3493422E-3,4.727373E-2,6.8497054E-2,-4.84683E-2,-1.7436353E-2,-6.1345333E-3,6.760236E-2,-1.0192797E-1,4.6465166E-2,1.15775146E-1,1.5670256E-1,-1.7475322E-2,2.379079E-2,-7.490241E-2,1.1560225E-1,1.4032361E-2,1.3726358E-2,1.4301431E-1,7.118611E-2,-5.7547517E-2,1.4030253E-2,1.2576549E-1,-4.9836792E-2,4.280558E-4,-1.17998116E-1,7.24089E-2,-4.9690347E-2,-1.2647136E-1,1.4086133E-1,-3.576908E-2,-4.8883405E-2,4.4848297E-2,1.09974835E-2,8.570928E-2,1.01818815E-2,-5.4353576E-2,8.316813E-2,-5.652274E-2,5.8090365E-3,-4.969349E-2,-2.9658778E-2,4.4624504E-2,8.9535415E-2,-5.2689947E-2,-8.666668E-2,-9.823728E-3],"split_indices":[22,9,7,28,22,7,7,10,16,18,19,11,28,28,10,9,18,22,0,10,21,11,13,18,28,20,2,28,18,11,20,28,10,20,7,19,19,0,0,6,1,11,26,7,13,0,0,0,0,0,18,18,16,20,17,13,19,7,17,8,9,0,0,0,0,0,0,0,0,0,0,0,0,0,0,0,0,0,0,0,0,0,0,0,0,0,0,0,0,0,0,0,0,0,0,0,0,0,0,0,0,0,0,0,0,0,0],"split_type":[0,0,0,0,0,0,0,0,0,0,0,0,0,0,0,0,0,0,0,0,0,0,0,0,0,0,0,0,0,0,0,0,0,0,0,0,0,0,0,0,0,0,0,0,0,0,0,0,0,0,0,0,0,0,0,0,0,0,0,0,0,0,0,0,0,0,0,0,0,0,0,0,0,0,0,0,0,0,0,0,0,0,0,0,0,0,0,0,0,0,0,0,0,0,0,0,0,0,0,0,0,0,0,0,0,0,0],"sum_hessian":[6.9666123E3,5.131321E3,1.8352915E3,2.835186E3,2.2961348E3,5.0158463E1,1.785133E3,2.7757754E3,5.9410748E1,6.773586E1,2.2283987E3,6.571824E0,4.358664E1,1.8882454E2,1.5963085E3,5.0492963E2,2.2708457E3,5.769741E1,1.7133375E0,6.132313E0,6.1603554E1,6.2281178E1,2.1661177E3,4.1423955E0,2.4294286E0,5.6814995E0,3.790514E1,8.20122E1,1.0681233E2,